47472095, -0.005105537828058004, -0.004848269745707512, -0.004591001663357019, -0.004333733581006527, -0.004076465964317322, -0.0038191976491361856, -0.003561929799616337, -0.0033046617172658443, -0.0030473938677459955, -0.002790125785395503, -0.0025328579358756542, -0.0022755898535251617, -0.002018322004005313, -0.0017610539216548204, -0.0015037859557196498, -0.0012465179897844791, -0.0009892500238493085, -0.0007319820579141378, -0.0004747140919789672, -0.00021744612604379654, 3.982183989137411e-05, 0.00029708980582654476, 0.0005543577717617154, 0.0008116257376968861, 0.0010688937036320567, 0.0013261616695672274, 0.001583429635502398, 0.0018406976014375687, 0.002097965683788061, 0.00235523353330791, 0.0026125016156584024, 0.0028697694651782513, 0.0031270375475287437, 0.0033843053970485926, 0.003641573479399085, 0.003898841328918934, 0.004156109411269426]}, "Weights/up2.up.weight": {"_type": "histogram", "values": [2, 0, 1, 4, 1, 12, 24, 25, 62, 103, 135, 199, 322, 479, 684, 918, 1346, 1664, 2144, 2796, 3492, 4414, 5371, 6483, 7659, 9180, 10574, 12874, 15387, 19731, 30340, 234898, 39668, 21412, 16566, 13568, 11504, 9775, 8236, 6929, 5678, 4664, 3762, 2897, 2239, 1779, 1268, 940, 676, 479, 313, 252, 136, 103, 46, 40, 13, 10, 4, 4, 2, 0, 0, 1], "bins": [-1.372808814048767, -1.3293870687484741, -1.2859654426574707, -1.2425436973571777, -1.1991220712661743, -1.1557003259658813, -1.112278699874878, -1.068856954574585, -1.0254353284835815, -0.9820135831832886, -0.9385918974876404, -0.8951702117919922, -0.851748526096344, -0.8083268404006958, -0.7649051547050476, -0.7214834690093994, -0.6780617237091064, -0.6346400380134583, -0.5912183523178101, -0.5477966666221619, -0.5043749809265137, -0.4609532952308655, -0.4175316095352173, -0.3741099238395691, -0.3306882381439209, -0.2872665226459503, -0.24384483695030212, -0.20042315125465393, -0.15700146555900574, -0.11357976496219635, -0.07015807926654816, -0.026736384257674217, 0.016685307025909424, 0.060107000172138214, 0.103528693318367, 0.1469503790140152, 0.19037207961082458, 0.23379376530647278, 0.27721545100212097, 0.32063713669776917, 0.36405885219573975, 0.40748053789138794, 0.45090222358703613, 0.4943239092826843, 0.5377455949783325, 0.5811672806739807, 0.6245889663696289, 0.6680106520652771, 0.7114323377609253, 0.7548540830612183, 0.7982757687568665, 0.8416974544525146, 0.8851191401481628, 0.928540825843811, 0.9719625115394592, 1.0153841972351074, 1.0588059425354004, 1.1022275686264038, 1.1456493139266968, 1.1890709400177002, 1.2324926853179932, 1.2759143114089966, 1.3193360567092896, 1.362757682800293, 1.406179428100586]}, "Gradients/up2.up.weight": {"_type": "histogram", "values": [1, 1, 0, 1, 1, 0, 4, 1, 4, 9, 4, 3, 3, 11, 7, 13, 18, 30, 26, 28, 37, 59, 97, 122, 160, 240, 391, 584, 969, 1716, 3769, 9434, 29358, 434066, 27204, 8721, 3286, 1504, 830, 511, 326, 216, 145, 108, 65, 64, 38, 25, 19, 13, 13, 12, 2, 5, 3, 1, 3, 0, 1, 2, 0, 1, 1, 2], "bins": [-0.00020100729307159781, -0.00019500662165228277, -0.0001890059356810525, -0.00018300526426173747, -0.00017700459284242243, -0.00017100390687119216, -0.00016500323545187712, -0.00015900256403256208, -0.00015300189261324704, -0.00014700120664201677, -0.00014100053522270173, -0.0001349998638033867, -0.00012899917783215642, -0.00012299850641284138, -0.00011699782771756873, -0.00011099715629825369, -0.00010499647760298103, -9.899579890770838e-05, -9.299512748839334e-05, -8.699444879312068e-05, -8.099377737380564e-05, -7.499309867853299e-05, -6.899241998326033e-05, -6.29917485639453e-05, -5.699106986867264e-05, -5.099039481137879e-05, -4.4989719754084945e-05, -3.898904105881229e-05, -3.298836600151844e-05, -2.6987690944224596e-05, -2.0987014067941345e-05, -1.4986338101152796e-05, -8.985662134364247e-06, -2.9849861675756983e-06, 3.0156897992128506e-06, 9.0163657660014e-06, 1.5017041732789949e-05, 2.1017716790083796e-05, 2.7018393666367047e-05, 3.30190705426503e-05, 3.9019745599944144e-05, 4.502042065723799e-05, 5.102109571453184e-05, 5.702177440980449e-05, 6.302245310507715e-05, 6.902312452439219e-05, 7.502380321966484e-05, 8.102447463897988e-05, 8.702515333425254e-05, 9.302583202952519e-05, 9.902650344884023e-05, 0.00010502718214411288, 0.00011102785356342793, 0.00011702853225870058, 0.00012302921095397323, 0.00012902988237328827, 0.00013503056834451854, 0.00014103123976383358, 0.00014703191118314862, 0.00015303258260246366, 0.00015903326857369393, 0.00016503393999300897, 0.000171034611412324, 0.00017703529738355428, 0.00018303596880286932]}, "Weights/up2.up.bias": {"_type": "histogram", "values": [4, 1, 2, 3, 4, 1, 2, 3, 2, 5, 6, 4, 1, 4, 3, 10, 3, 5, 6, 10, 2, 3, 0, 6, 3, 9, 4, 3, 4, 5, 9, 8, 5, 8, 7, 5, 4, 4, 8, 3, 5, 9, 3, 2, 3, 3, 9, 3, 3, 4, 5, 4, 3, 4, 5, 2, 0, 1, 2, 1, 2, 2, 0, 2], "bins": [-1.7198326587677002, -1.6622966527938843, -1.6047606468200684, -1.5472246408462524, -1.4896886348724365, -1.4321526288986206, -1.3746166229248047, -1.3170806169509888, -1.2595446109771729, -1.2020084857940674, -1.1444724798202515, -1.0869364738464355, -1.0294004678726196, -0.9718644618988037, -0.9143284559249878, -0.8567924499511719, -0.799256443977356, -0.74172043800354, -0.6841844320297241, -0.6266484260559082, -0.5691124200820923, -0.5115763545036316, -0.4540403485298157, -0.39650434255599976, -0.33896833658218384, -0.2814323306083679, -0.2238963097333908, -0.1663602888584137, -0.10882428288459778, -0.05128826946020126, 0.0062477439641952515, 0.06378375738859177, 0.12131977081298828, 0.1788557767868042, 0.2363917976617813, 0.2939278185367584, 0.35146382451057434, 0.40899983048439026, 0.46653586626052856, 0.5240718722343445, 0.5816078782081604, 0.6391438841819763, 0.6966798901557922, 0.7542158961296082, 0.8117519617080688, 0.8692879676818848, 0.9268239736557007, 0.9843599796295166, 1.0418959856033325, 1.0994319915771484, 1.1569679975509644, 1.2145040035247803, 1.2720400094985962, 1.329576015472412, 1.387112021446228, 1.444648027420044, 1.5021841526031494, 1.5597201585769653, 1.6172561645507812, 1.6747921705245972, 1.732328176498413, 1.789864182472229, 1.847400188446045, 1.9049361944198608, 1.9624722003936768]}, "Gradients/up2.up.bias": {"_type": "histogram", "values": [1, 0, 0, 0, 0, 1, 1, 0, 3, 1, 2, 3, 1, 2, 1, 4, 1, 4, 0, 3, 6, 8, 5, 7, 8, 14, 9, 6, 6, 11, 13, 10, 11, 9, 13, 6, 7, 7, 10, 12, 9, 3, 6, 4, 7, 3, 4, 3, 2, 3, 0, 1, 0, 0, 1, 1, 0, 0, 0, 0, 2, 0, 0, 1], "bins": [-2.6300494937459007e-05, -2.549665623519104e-05, -2.4692817532923073e-05, -2.3888978830655105e-05, -2.3085140128387138e-05, -2.228130142611917e-05, -2.14774609048618e-05, -2.0673622202593833e-05, -1.9869783500325866e-05, -1.90659447980579e-05, -1.8262106095789932e-05, -1.7458267393521965e-05, -1.6654428691253997e-05, -1.585058998898603e-05, -1.5046750377223361e-05, -1.4242911674955394e-05, -1.3439072972687427e-05, -1.263523427041946e-05, -1.1831395568151493e-05, -1.1027555956388824e-05, -1.0223717254120857e-05, -9.41987855185289e-06, -8.616039849584922e-06, -7.812201147316955e-06, -7.008361990301637e-06, -6.20452328803367e-06, -5.400684131018352e-06, -4.596845428750385e-06, -3.793006499108742e-06, -2.9891675694670994e-06, -2.1853288671991322e-06, -1.3814899375574896e-06, -5.77651007915847e-07, 2.2618786488237674e-07, 1.0300267376806005e-06, 1.8338655536354054e-06, 2.637704483277048e-06, 3.4415434129186906e-06, 4.245382115186658e-06, 5.049221272201976e-06, 5.853059974469943e-06, 6.65689867673791e-06, 7.460737833753228e-06, 8.264576536021195e-06, 9.068415238289163e-06, 9.87225394055713e-06, 1.0676093552319799e-05, 1.1479932254587766e-05, 1.2283770956855733e-05, 1.30876096591237e-05, 1.3891448361391667e-05, 1.4695287973154336e-05, 1.5499126675422303e-05, 1.630296537769027e-05, 1.7106804079958238e-05, 1.7910642782226205e-05, 1.8714481484494172e-05, 1.951832018676214e-05, 2.0322158889030106e-05, 2.1125999410287477e-05, 2.1929838112555444e-05, 2.273367681482341e-05, 2.353751551709138e-05, 2.4341354219359346e-05, 2.5145192921627313e-05]}, "Weights/up2.conv.double_conv.0.weight": {"_type": "histogram", "values": [3, 3, 11, 11, 22, 35, 63, 103, 144, 215, 370, 508, 745, 995, 1497, 2121, 3128, 4294, 5777, 7906, 10547, 13734, 17725, 21490, 26069, 30638, 36049, 41941, 48345, 55705, 62735, 71082, 79162, 86532, 97343, 77756, 67129, 57787, 49507, 40952, 33335, 27099, 21214, 16814, 13419, 10775, 8663, 7060, 5607, 4541, 3450, 2574, 1818, 1175, 774, 479, 286, 167, 92, 71, 27, 14, 8, 7], "bins": [-2.2913026809692383, -2.2244386672973633, -2.1575746536254883, -2.0907106399536133, -2.0238466262817383, -1.9569827318191528, -1.8901187181472778, -1.8232547044754028, -1.7563908100128174, -1.6895267963409424, -1.6226627826690674, -1.5557987689971924, -1.4889347553253174, -1.422070860862732, -1.355206847190857, -1.288342833518982, -1.221478819847107, -1.154614806175232, -1.0877509117126465, -1.0208868980407715, -0.9540228843688965, -0.8871589303016663, -0.8202949166297913, -0.7534309029579163, -0.686566948890686, -0.619702935218811, -0.5528389811515808, -0.4859749674797058, -0.4191109836101532, -0.3522469997406006, -0.2853829860687256, -0.21851900219917297, -0.15165501832962036, -0.08479102700948715, -0.01792703941464424, 0.04893694818019867, 0.11580093950033188, 0.1826649308204651, 0.2495289146900177, 0.3163928985595703, 0.3832569122314453, 0.4501208961009979, 0.5169848799705505, 0.5838488936424255, 0.6507128477096558, 0.7175768613815308, 0.784440815448761, 0.851304829120636, 0.9181687831878662, 0.9850327968597412, 1.0518968105316162, 1.1187608242034912, 1.1856247186660767, 1.2524887323379517, 1.3193527460098267, 1.3862167596817017, 1.4530807733535767, 1.519944667816162, 1.586808681488037, 1.653672695159912, 1.720536708831787, 1.787400722503662, 1.8542646169662476, 1.9211286306381226, 1.9879926443099976]}, "Gradients/up2.conv.double_conv.0.weight": {"_type": "histogram", "values": [1, 3, 0, 3, 4, 5, 13, 18, 19, 30, 44, 52, 105, 104, 162, 242, 270, 372, 576, 736, 996, 1456, 1909, 2830, 4144, 5712, 8928, 13821, 22662, 43769, 106269, 552367, 236710, 76618, 37458, 20677, 12967, 8487, 5705, 3719, 2580, 1858, 1354, 1030, 764, 579, 408, 288, 214, 139, 124, 75, 72, 53, 43, 33, 24, 12, 11, 12, 2, 5, 3, 2], "bins": [-2.7605925424722955e-05, -2.6735764549812302e-05, -2.586560367490165e-05, -2.49954446189804e-05, -2.4125283744069748e-05, -2.3255122869159095e-05, -2.2384961994248442e-05, -2.151480111933779e-05, -2.0644640244427137e-05, -1.9774481188505888e-05, -1.8904320313595235e-05, -1.8034159438684583e-05, -1.716399856377393e-05, -1.6293837688863277e-05, -1.5423676813952625e-05, -1.4553516848536674e-05, -1.3683356883120723e-05, -1.281319600821007e-05, -1.1943035133299418e-05, -1.1072875167883467e-05, -1.0202714292972814e-05, -9.332553418062162e-06, -8.46239345264621e-06, -7.592232577735558e-06, -6.7220717028249055e-06, -5.851911282661604e-06, -4.981750862498302e-06, -4.111590442335e-06, -3.2414295674243476e-06, -2.371269147261046e-06, -1.5011084997240687e-06, -6.309479658739292e-07, 2.3921256797621027e-07, 1.1093731018263497e-06, 1.979533635676489e-06, 2.8496942832134664e-06, 3.719854703376768e-06, 4.590015578287421e-06, 5.4601759984507225e-06, 6.330336418614024e-06, 7.200496838777326e-06, 8.070657713687979e-06, 8.940818588598631e-06, 9.810978554014582e-06, 1.0681139428925235e-05, 1.1551300303835887e-05, 1.2421460269251838e-05, 1.3291621144162491e-05, 1.4161782019073144e-05, 1.5031941984489094e-05, 1.5902101949905045e-05, 1.6772262824815698e-05, 1.764242369972635e-05, 1.8512584574637003e-05, 1.9382745449547656e-05, 2.025290632445831e-05, 2.1123065380379558e-05, 2.199322625529021e-05, 2.2863387130200863e-05, 2.3733548005111516e-05, 2.4603708880022168e-05, 2.547386975493282e-05, 2.634402881085407e-05, 2.7214189685764723e-05, 2.8084350560675375e-05]}, "Weights/up2.conv.double_conv.1.weight": {"_type": "histogram", "values": [1, 1, 1, 0, 0, 0, 4, 4, 0, 3, 3, 4, 1, 2, 8, 7, 6, 2, 5, 6, 9, 7, 6, 6, 3, 13, 9, 12, 5, 8, 9, 8, 7, 5, 4, 8, 5, 8, 11, 3, 3, 2, 5, 6, 8, 2, 3, 3, 1, 5, 1, 1, 4, 1, 1, 1, 0, 2, 0, 0, 0, 0, 1, 2], "bins": [0.1999208629131317, 0.22948488593101501, 0.2590489089488983, 0.2886129319667816, 0.3181769847869873, 0.3477410078048706, 0.3773050308227539, 0.4068690538406372, 0.4364330768585205, 0.4659970998764038, 0.4955611228942871, 0.5251251459121704, 0.5546891689300537, 0.584253191947937, 0.6138172149658203, 0.6433812975883484, 0.6729453206062317, 0.702509343624115, 0.7320733666419983, 0.7616373896598816, 0.7912014126777649, 0.8207654356956482, 0.8503294587135315, 0.8798934817314148, 0.9094575047492981, 0.9390215277671814, 0.9685855507850647, 0.998149573802948, 1.027713656425476, 1.0572776794433594, 1.0868417024612427, 1.116405725479126, 1.1459697484970093, 1.1755337715148926, 1.2050977945327759, 1.2346618175506592, 1.2642258405685425, 1.2937898635864258, 1.323353886604309, 1.3529179096221924, 1.3824819326400757, 1.412045955657959, 1.4416099786758423, 1.4711740016937256, 1.5007380247116089, 1.5303020477294922, 1.5598660707473755, 1.5894300937652588, 1.618994116783142, 1.6485581398010254, 1.6781222820281982, 1.7076863050460815, 1.7372503280639648, 1.7668143510818481, 1.7963783740997314, 1.8259423971176147, 1.855506420135498, 1.8850704431533813, 1.9146344661712646, 1.944198489189148, 1.9737625122070312, 2.003326416015625, 2.032890558242798, 2.0624544620513916, 2.0920186042785645]}, "Gradients/up2.conv.double_conv.1.weight": {"_type": "histogram", "values": [1, 0, 0, 1, 0, 1, 0, 0, 0, 2, 2, 3, 2, 3, 3, 4, 6, 4, 2, 3, 6, 7, 4, 8, 8, 8, 14, 6, 11, 16, 20, 25, 22, 18, 10, 12, 6, 0, 5, 2, 0, 1, 2, 1, 1, 0, 0, 1, 1, 1, 0, 0, 0, 0, 0, 0, 0, 0, 1, 0, 0, 0, 0, 2], "bins": [-0.0015471134101971984, -0.0014923744602128863, -0.0014376353938132524, -0.0013828964438289404, -0.0013281573774293065, -0.0012734184274449944, -0.0012186794774606824, -0.0011639404110610485, -0.0011092014610767365, -0.0010544623946771026, -0.0009997234446927905, -0.0009449844365008175, -0.0008902454865165055, -0.0008355064783245325, -0.0007807674701325595, -0.0007260284619405866, -0.0006712895119562745, -0.0006165505037643015, -0.0005618114955723286, -0.0005070724873803556, -0.0004523335082922131, -0.0003975945001002401, -0.0003428555210120976, -0.0002881165128201246, -0.00023337751918006688, -0.00017863852554000914, -0.0001238995318999514, -6.916053098393604e-05, -1.4421537343878299e-05, 4.0317456296179444e-05, 9.50564572121948e-05, 0.00014979545085225254, 0.00020453444449231029, 0.00025927345268428326, 0.00031401243177242577, 0.00036875143996439874, 0.00042349041905254126, 0.0004782294272445142, 0.0005329684354364872, 0.0005877073854207993, 0.0006424463936127722, 0.0006971854018047452, 0.0007519244099967182, 0.0008066634181886911, 0.0008614023681730032, 0.0009161413763649762, 0.0009708803845569491, 0.0010256193345412612, 0.001080358400940895, 0.0011350973509252071, 0.001189836417324841, 0.001244575367309153, 0.0012993143172934651, 0.001354053383693099, 0.001408792333677411, 0.0014635312836617231, 0.001518270350061357, 0.001573009300045669, 0.001627748366445303, 0.001682487316429615, 0.001737226266413927, 0.001791965332813561, 0.001846704282797873, 0.001901443349197507, 0.001956182299181819]}, "Weights/up2.conv.double_conv.1.bias": {"_type": "histogram", "values": [1, 1, 0, 1, 1, 0, 1, 2, 1, 4, 1, 2, 2, 2, 3, 5, 7, 1, 5, 3, 8, 6, 5, 9, 5, 7, 6, 4, 10, 11, 5, 8, 9, 7, 10, 6, 5, 4, 6, 6, 4, 7, 7, 8, 5, 7, 6, 5, 6, 4, 1, 1, 0, 3, 4, 0, 1, 1, 0, 3, 1, 1, 0, 1], "bins": [-1.0447998046875, -0.9967519640922546, -0.9487041234970093, -0.9006563425064087, -0.8526085019111633, -0.804560661315918, -0.7565128803253174, -0.708465039730072, -0.6604171991348267, -0.6123693585395813, -0.5643215179443359, -0.5162737369537354, -0.46822589635849, -0.42017805576324463, -0.37213024497032166, -0.3240824341773987, -0.2760345935821533, -0.22798676788806915, -0.17993894219398499, -0.13189111649990082, -0.08384329080581665, -0.03579546511173248, 0.012252360582351685, 0.06030018627643585, 0.10834801197052002, 0.1563958376646042, 0.20444366335868835, 0.25249147415161133, 0.3005393147468567, 0.34858715534210205, 0.396634966135025, 0.444682776927948, 0.49273061752319336, 0.5407784581184387, 0.5888262987136841, 0.6368740797042847, 0.68492192029953, 0.7329697608947754, 0.781017541885376, 0.8290653824806213, 0.8771132230758667, 0.9251610636711121, 0.9732089042663574, 1.021256685256958, 1.0693044662475586, 1.1173523664474487, 1.1654001474380493, 1.2134480476379395, 1.26149582862854, 1.3095436096191406, 1.3575915098190308, 1.4056392908096313, 1.4536871910095215, 1.501734972000122, 1.5497827529907227, 1.5978306531906128, 1.6458784341812134, 1.693926215171814, 1.741974115371704, 1.7900218963623047, 1.8380696773529053, 1.8861175775527954, 1.934165358543396, 1.9822132587432861, 2.0302610397338867]}, "Gradients/up2.conv.double_conv.1.bias": {"_type": "histogram", "values": [1, 0, 1, 0, 0, 0, 1, 1, 0, 0, 1, 0, 0, 2, 0, 0, 1, 1, 0, 0, 2, 2, 0, 1, 1, 0, 1, 0, 1, 3, 3, 4, 4, 8, 7, 6, 22, 11, 18, 21, 40, 33, 16, 17, 6, 5, 5, 0, 1, 0, 1, 0, 0, 3, 1, 0, 0, 2, 1, 0, 0, 0, 0, 1], "bins": [-0.002809891477227211, -0.0027395433280617, -0.0026691951788961887, -0.0025988470297306776, -0.0025284988805651665, -0.0024581504985690117, -0.0023878023494035006, -0.0023174542002379894, -0.0022471060510724783, -0.002176757901906967, -0.002106409752741456, -0.002036061603575945, -0.0019657134544104338, -0.0018953651888296008, -0.0018250170396640897, -0.0017546688904985785, -0.0016843206249177456, -0.0016139724757522345, -0.0015436243265867233, -0.0014732761774212122, -0.001402928028255701, -0.001332579762674868, -0.001262231613509357, -0.0011918834643438458, -0.0011215353151783347, -0.0010511871660128236, -0.0009808389004319906, -0.0009104907512664795, -0.0008401426021009684, -0.0007697943947277963, -0.0006994462455622852, -0.0006290980381891131, -0.000558749889023602, -0.0004884017398580909, -0.00041805353248491883, -0.00034770535421557724, -0.00027735717594623566, -0.0002070090122288093, -0.00013666084851138294, -6.631267024204135e-05, 4.035508027300239e-06, 7.438368629664183e-05, 0.00014473186456598341, 0.00021508002828340977, 0.00028542819200083613, 0.0003557763702701777, 0.0004261245485395193, 0.0004964727559126914, 0.0005668209050782025, 0.0006371690542437136, 0.0007075172616168857, 0.0007778654107823968, 0.0008482136181555688, 0.00091856176732108, 0.000988909974694252, 0.0010592581238597631, 0.0011296062730252743, 0.0011999544221907854, 0.0012703026877716184, 0.0013406508369371295, 0.0014109989861026406, 0.0014813471352681518, 0.0015516954008489847, 0.0016220435500144958, 0.001692391699180007]}, "Weights/up2.conv.double_conv.3.weight": {"_type": "histogram", "values": [4, 2, 8, 4, 14, 24, 45, 65, 96, 156, 222, 360, 584, 752, 1198, 1713, 2384, 3171, 4235, 5506, 7257, 8882, 11373, 13965, 16549, 19343, 22402, 25563, 28139, 31009, 33602, 36023, 42630, 61330, 36451, 31724, 27738, 24215, 20677, 16967, 13525, 10473, 7981, 6076, 4495, 3173, 2374, 1670, 1187, 792, 579, 406, 230, 156, 113, 84, 50, 26, 16, 19, 7, 5, 1, 4], "bins": [-2.102125644683838, -2.0386593341827393, -1.9751930236816406, -1.911726713180542, -1.8482604026794434, -1.7847940921783447, -1.7213276624679565, -1.657861351966858, -1.5943950414657593, -1.5309287309646606, -1.467462420463562, -1.4039961099624634, -1.3405297994613647, -1.2770634889602661, -1.2135971784591675, -1.1501308679580688, -1.0866644382476807, -1.023198127746582, -0.9597318768501282, -0.8962655067443848, -0.8327991962432861, -0.7693328857421875, -0.7058665752410889, -0.6424002647399902, -0.5789339542388916, -0.5154675841331482, -0.45200127363204956, -0.3885349631309509, -0.3250686526298523, -0.2616023123264313, -0.19813600182533264, -0.13466967642307281, -0.07120335102081299, -0.00773702934384346, 0.05572929233312607, 0.1191956102848053, 0.18266193568706512, 0.24612826108932495, 0.3095945715904236, 0.3730609118938446, 0.43652722239494324, 0.49999353289604187, 0.5634598731994629, 0.6269261837005615, 0.6903924942016602, 0.7538588047027588, 0.8173251748085022, 0.8807914853096008, 0.9442577958106995, 1.0077241659164429, 1.0711904764175415, 1.1346567869186401, 1.1981230974197388, 1.2615894079208374, 1.325055718421936, 1.3885220289230347, 1.4519883394241333, 1.515454649925232, 1.5789209604263306, 1.6423873901367188, 1.7058537006378174, 1.769320011138916, 1.8327863216400146, 1.8962526321411133, 1.959718942642212]}, "Gradients/up2.conv.double_conv.3.weight": {"_type": "histogram", "values": [5, 7, 7, 17, 15, 26, 19, 25, 45, 47, 68, 119, 234, 388, 917, 2291, 6729, 26507, 152664, 336968, 40847, 11057, 4269, 2237, 1313, 832, 563, 426, 304, 191, 129, 109, 91, 75, 55, 43, 30, 27, 24, 26, 11, 4, 7, 1, 5, 4, 3, 4, 2, 3, 2, 3, 6, 1, 3, 3, 2, 4, 1, 1, 2, 1, 3, 2], "bins": [-4.8662088374840096e-05, -4.6113276766845956e-05, -4.356446152087301e-05, -4.101564991287887e-05, -3.846683830488473e-05, -3.5918023058911785e-05, -3.3369211450917646e-05, -3.082039984292351e-05, -2.8271586415939964e-05, -2.572277298895642e-05, -2.317395956197288e-05, -2.062514795397874e-05, -1.8076334526995197e-05, -1.5527521100011654e-05, -1.2978709492017515e-05, -1.0429896065033972e-05, -7.881083547545131e-06, -5.3322705753089394e-06, -2.7834580578200985e-06, -2.3464514242732548e-07, 2.31416765927861e-06, 4.862980404141126e-06, 7.411793376377318e-06, 9.960605893866159e-06, 1.2509419320849702e-05, 1.5058231838338543e-05, 1.7607044355827384e-05, 2.0155857782810926e-05, 2.2704669390805066e-05, 2.525348281778861e-05, 2.780229624477215e-05, 3.035110785276629e-05, 3.2899923098739237e-05, 3.5448734706733376e-05, 3.7997546314727515e-05, 4.0546357922721654e-05, 4.30951731686946e-05, 4.564398477668874e-05, 4.819279638468288e-05, 5.0741611630655825e-05, 5.3290423238649964e-05, 5.5839234846644104e-05, 5.838805009261705e-05, 6.093686170061119e-05, 6.348567694658414e-05, 6.603448855457827e-05, 6.858330016257241e-05, 7.113211177056655e-05, 7.368092337856069e-05, 7.622974226251245e-05, 7.877855387050658e-05, 8.132736547850072e-05, 8.387617708649486e-05, 8.6424988694489e-05, 8.897380030248314e-05, 9.15226191864349e-05, 9.407143079442903e-05, 9.662024240242317e-05, 9.916905401041731e-05, 0.00010171786561841145, 0.00010426667722640559, 0.00010681549611035734, 0.00010936430771835148, 0.00011191311932634562, 0.00011446193093433976]}, "Weights/up2.conv.double_conv.4.weight": {"_type": "histogram", "values": [1, 0, 0, 0, 0, 0, 0, 0, 0, 0, 1, 0, 0, 0, 1, 0, 1, 2, 1, 2, 2, 6, 0, 3, 6, 4, 7, 10, 5, 10, 1, 11, 3, 8, 4, 15, 7, 8, 12, 11, 13, 12, 5, 9, 7, 10, 6, 3, 11, 4, 4, 4, 5, 5, 2, 2, 1, 2, 3, 0, 3, 1, 1, 1], "bins": [-0.8255508542060852, -0.7863525748252869, -0.7471543550491333, -0.707956075668335, -0.6687578558921814, -0.6295595765113831, -0.5903613567352295, -0.5511630773544312, -0.5119648575782776, -0.47276660799980164, -0.4335683584213257, -0.39437010884284973, -0.3551718592643738, -0.3159736096858978, -0.2767753601074219, -0.23757709562778473, -0.19837884604930878, -0.15918059647083282, -0.11998234689235687, -0.08078409731388092, -0.04158584401011467, -0.002387593500316143, 0.03681065887212753, 0.07600890845060349, 0.11520715802907944, 0.154405415058136, 0.19360366463661194, 0.2328019142150879, 0.27200016379356384, 0.3111984133720398, 0.35039666295051575, 0.3895949125289917, 0.42879316210746765, 0.4679914116859436, 0.5071896910667419, 0.5463879108428955, 0.5855861902236938, 0.6247844099998474, 0.6639826893806458, 0.7031809091567993, 0.7423791885375977, 0.7815774083137512, 0.8207756876945496, 0.8599739074707031, 0.8991721868515015, 0.938370406627655, 0.9775686860084534, 1.016766905784607, 1.0559651851654053, 1.0951634645462036, 1.1343616247177124, 1.1735599040985107, 1.212758183479309, 1.2519564628601074, 1.2911546230316162, 1.3303529024124146, 1.369551181793213, 1.4087494611740112, 1.44794762134552, 1.4871459007263184, 1.5263441801071167, 1.565542459487915, 1.6047406196594238, 1.6439388990402222, 1.6831371784210205]}, "Gradients/up2.conv.double_conv.4.weight": {"_type": "histogram", "values": [2, 0, 0, 0, 1, 0, 0, 1, 0, 2, 0, 1, 1, 2, 6, 5, 0, 5, 5, 7, 5, 6, 6, 4, 6, 8, 5, 12, 11, 9, 8, 14, 28, 15, 12, 5, 8, 9, 8, 11, 8, 6, 9, 2, 1, 0, 1, 0, 0, 0, 0, 0, 0, 0, 0, 0, 0, 0, 0, 0, 0, 0, 0, 1], "bins": [-0.0054638199508190155, -0.0052930801175534725, -0.005122340749949217, -0.004951600916683674, -0.004780861549079418, -0.004610121715813875, -0.0044393823482096195, -0.0042686425149440765, -0.004097903147339821, -0.003927163314074278, -0.003756423946470022, -0.003585684346035123, -0.0034149447456002235, -0.003244205145165324, -0.003073465544730425, -0.0029027259442955256, -0.0027319863438606262, -0.0025612465105950832, -0.002390506910160184, -0.0022197673097252846, -0.0020490277092903852, -0.0018782882252708077, -0.0017075486248359084, -0.001536809024401009, -0.001366069307550788, -0.0011953297071158886, -0.0010245901066809893, -0.0008538505644537508, -0.0006831109058111906, -0.0005123713053762913, -0.00034163170494139194, -0.00017089210450649261, -1.525040715932846e-07, 0.00017058709636330605, 0.0003413266967982054, 0.0005120662972331047, 0.000682805897668004, 0.0008535455563105643, 0.0010242850985378027, 0.001195024698972702, 0.0013657642994076014, 0.0015365040162578225, 0.0017072436166927218, 0.0018779832171276212, 0.0020487227011471987, 0.002219462301582098, 0.0023902019020169973, 0.0025609415024518967, 0.0027316813357174397, 0.002902420936152339, 0.0030731605365872383, 0.0032439001370221376, 0.003414639737457037, 0.0035853793378919363, 0.0037561189383268356, 0.003926858305931091, 0.004097598139196634, 0.00426833750680089, 0.004439077340066433, 0.004609816707670689, 0.004780556540936232, 0.004951295908540487, 0.00512203574180603, 0.005292775109410286, 0.005463514942675829]}, "Weights/up2.conv.double_conv.4.bias": {"_type": "histogram", "values": [2, 0, 2, 3, 2, 2, 5, 2, 5, 11, 5, 6, 4, 10, 9, 5, 7, 14, 8, 14, 11, 8, 6, 3, 9, 11, 2, 6, 8, 7, 4, 8, 1, 4, 4, 4, 4, 3, 2, 4, 6, 4, 2, 2, 0, 0, 3, 3, 2, 2, 1, 0, 0, 1, 2, 0, 0, 1, 0, 1, 0, 0, 0, 1], "bins": [-0.9438480138778687, -0.9021950960159302, -0.8605421781539917, -0.8188892006874084, -0.77723628282547, -0.7355833649635315, -0.6939303874969482, -0.6522774696350098, -0.6106245517730713, -0.5689716339111328, -0.5273187160491943, -0.4856657385826111, -0.4440128207206726, -0.40235990285873413, -0.36070695519447327, -0.3190540075302124, -0.2774010896682739, -0.23574815690517426, -0.19409522414207458, -0.15244229137897491, -0.11078935861587524, -0.06913642585277557, -0.027483493089675903, 0.014169439673423767, 0.05582237243652344, 0.09747530519962311, 0.13912823796272278, 0.18078117072582245, 0.22243410348892212, 0.2640870213508606, 0.30573996901512146, 0.3473929166793823, 0.3890458345413208, 0.4306987524032593, 0.47235170006752014, 0.514004647731781, 0.5556575655937195, 0.597310483455658, 0.6389634609222412, 0.6806163787841797, 0.7222692966461182, 0.7639222145080566, 0.8055751323699951, 0.8472281098365784, 0.8888810276985168, 0.9305339455604553, 0.9721869230270386, 1.013839840888977, 1.0554927587509155, 1.097145676612854, 1.1387985944747925, 1.180451512336731, 1.222104549407959, 1.2637574672698975, 1.305410385131836, 1.3470633029937744, 1.388716220855713, 1.4303691387176514, 1.4720220565795898, 1.5136749744415283, 1.5553278923034668, 1.5969809293746948, 1.6386338472366333, 1.6802867650985718, 1.7219396829605103]}, "Gradients/up2.conv.double_conv.4.bias": {"_type": "histogram", "values": [1, 0, 1, 0, 0, 0, 0, 0, 0, 1, 0, 0, 1, 0, 1, 1, 0, 1, 1, 2, 0, 0, 1, 2, 1, 1, 1, 1, 2, 1, 2, 5, 13, 8, 15, 40, 24, 13, 14, 16, 19, 16, 9, 10, 3, 2, 4, 2, 0, 10, 8, 2, 0, 0, 0, 0, 0, 0, 0, 0, 0, 0, 0, 1], "bins": [-0.0053297001868486404, -0.005181483458727598, -0.005033266730606556, -0.004885050468146801, -0.004736833740025759, -0.0045886170119047165, -0.004440400283783674, -0.004292184021323919, -0.004143967293202877, -0.003995750565081835, -0.003847534069791436, -0.003699317341670394, -0.0035511008463799953, -0.003402884118258953, -0.0032546676229685545, -0.0031064508948475122, -0.0029582343995571136, -0.0028100176714360714, -0.002661800943315029, -0.0025135844480246305, -0.0023653677199035883, -0.0022171512246131897, -0.0020689344964921474, -0.0019207180012017488, -0.0017725012730807066, -0.0016242846613749862, -0.0014760680496692657, -0.0013278514379635453, -0.001179634826257825, -0.0010314182145521045, -0.000883201602846384, -0.0007349849911406636, -0.0005867683794349432, -0.0004385517677292228, -0.00029033515602350235, -0.00014211851521395147, 6.098096491768956e-06, 0.00015431470819748938, 0.00030253134900704026, 0.0004507479607127607, 0.0005989645724184811, 0.0007471811841242015, 0.000895397795829922, 0.0010436144657433033, 0.0011918310774490237, 0.0013400476891547441, 0.0014882643008604646, 0.001636480912566185, 0.0017846975242719054, 0.0019329141359776258, 0.002081130864098668, 0.0022293473593890667, 0.002377564087510109, 0.0025257805828005075, 0.00267399731092155, 0.0028222138062119484, 0.0029704305343329906, 0.0031186470296233892, 0.0032668637577444315, 0.00341508025303483, 0.0035632969811558723, 0.003711513476446271, 0.003859730204567313, 0.004007946699857712, 0.004156163427978754]}, "Weights/up3.up.weight": {"_type": "histogram", "values": [1, 1, 1, 1, 6, 3, 7, 8, 17, 25, 30, 35, 72, 85, 142, 237, 345, 493, 697, 872, 1181, 1443, 1783, 2229, 2785, 3185, 3691, 4162, 4710, 5158, 5519, 5877, 6648, 7503, 11434, 7506, 6548, 6025, 5716, 5152, 4808, 4327, 3937, 3415, 2935, 2470, 1905, 1563, 1192, 965, 678, 494, 360, 246, 172, 99, 68, 32, 37, 11, 6, 7, 10, 2], "bins": [-1.7146822214126587, -1.6650207042694092, -1.6153593063354492, -1.5656977891921997, -1.5160362720489502, -1.4663748741149902, -1.4167133569717407, -1.3670518398284912, -1.3173904418945312, -1.2677289247512817, -1.2180674076080322, -1.1684058904647827, -1.1187444925308228, -1.0690829753875732, -1.0194214582443237, -0.969760000705719, -0.9200985431671143, -0.8704370856285095, -0.82077556848526, -0.7711141109466553, -0.7214525938034058, -0.671791136264801, -0.6221296787261963, -0.5724681615829468, -0.522806704044342, -0.4731452167034149, -0.4234837293624878, -0.37382227182388306, -0.32416078448295593, -0.2744992971420288, -0.22483782470226288, -0.17517635226249695, -0.12551486492156982, -0.0758533850312233, -0.02619190514087677, 0.023469574749469757, 0.07313105463981628, 0.12279253453016281, 0.17245401442050934, 0.22211548686027527, 0.2717769742012024, 0.3214384615421295, 0.37109994888305664, 0.4207614064216614, 0.4704228937625885, 0.5200843811035156, 0.5697458386421204, 0.6194073557853699, 0.6690688133239746, 0.7187302708625793, 0.7683917880058289, 0.8180532455444336, 0.8677147626876831, 0.9173762202262878, 0.9670376777648926, 1.016699194908142, 1.0663607120513916, 1.1160221099853516, 1.165683627128601, 1.2153451442718506, 1.2650065422058105, 1.31466805934906, 1.3643295764923096, 1.4139909744262695, 1.463652491569519]}, "Gradients/up3.up.weight": {"_type": "histogram", "values": [6, 1, 6, 9, 7, 21, 24, 26, 38, 49, 40, 58, 75, 106, 145, 178, 187, 297, 354, 434, 604, 782, 1011, 1318, 1714, 2012, 2570, 3364, 4245, 5507, 7406, 11058, 32413, 15449, 9571, 6686, 5112, 4034, 3158, 2515, 1901, 1514, 1168, 843, 615, 571, 424, 305, 271, 195, 166, 135, 112, 62, 63, 40, 39, 17, 22, 8, 3, 0, 4, 4], "bins": [-9.65555664151907e-05, -9.361570846522227e-05, -9.067585051525384e-05, -8.77359852893278e-05, -8.479612733935937e-05, -8.185626938939095e-05, -7.891641143942252e-05, -7.597654621349648e-05, -7.303668826352805e-05, -7.009683031355962e-05, -6.71569723635912e-05, -6.421710713766515e-05, -6.127724918769673e-05, -5.83373912377283e-05, -5.539752964978106e-05, -5.2457671699812636e-05, -4.95178101118654e-05, -4.6577952161896974e-05, -4.3638094211928546e-05, -4.069823262398131e-05, -3.7758374674012884e-05, -3.481851308606565e-05, -3.187865513609722e-05, -2.8938793548149988e-05, -2.599893559818156e-05, -2.305907582922373e-05, -2.01192160602659e-05, -1.7179356291308068e-05, -1.4239496522350237e-05, -1.1299636753392406e-05, -8.359776984434575e-06, -5.419917215476744e-06, -2.480057446518913e-06, 4.5980220875208033e-07, 3.3996618640230736e-06, 6.339521405607229e-06, 9.279381629312411e-06, 1.221924048877554e-05, 1.5159100257733371e-05, 1.8098960936185904e-05, 2.1038820705143735e-05, 2.3978678655112162e-05, 2.6918538424069993e-05, 2.9858398193027824e-05, 3.279825978097506e-05, 3.5738117730943486e-05, 3.867797931889072e-05, 4.161783726885915e-05, 4.4557695218827575e-05, 4.749755680677481e-05, 5.043741475674324e-05, 5.337727634469047e-05, 5.63171342946589e-05, 5.9256995882606134e-05, 6.219685747055337e-05, 6.51367154205218e-05, 6.807657337049022e-05, 7.101643132045865e-05, 7.395629654638469e-05, 7.689615449635312e-05, 7.983601244632155e-05, 8.277587039628997e-05, 8.571573562221602e-05, 8.865559357218444e-05, 9.159545152215287e-05]}, "Weights/up3.up.bias": {"_type": "histogram", "values": [1, 0, 0, 0, 0, 1, 0, 0, 1, 0, 0, 1, 4, 2, 0, 4, 0, 1, 1, 2, 1, 3, 2, 3, 3, 2, 3, 2, 3, 7, 0, 2, 0, 3, 3, 2, 2, 2, 2, 2, 4, 1, 2, 1, 4, 2, 3, 3, 2, 0, 3, 2, 7, 3, 3, 3, 5, 6, 3, 1, 3, 1, 0, 1], "bins": [-4.138982772827148, -4.026681900024414, -3.914381504058838, -3.8020806312561035, -3.6897799968719482, -3.577479362487793, -3.4651787281036377, -3.3528778553009033, -3.240577220916748, -3.1282765865325928, -3.0159759521484375, -2.903675079345703, -2.791374444961548, -2.6790738105773926, -2.5667731761932373, -2.454472303390503, -2.3421716690063477, -2.2298710346221924, -2.117570400238037, -2.005269765853882, -1.892969012260437, -1.7806682586669922, -1.668367624282837, -1.556066870689392, -1.4437662363052368, -1.331465482711792, -1.2191648483276367, -1.106864094734192, -0.9945634603500366, -0.8822627663612366, -0.7699620723724365, -0.6576613783836365, -0.5453606843948364, -0.4330599904060364, -0.32075929641723633, -0.20845861732959747, -0.09615792334079742, 0.016142766922712326, 0.12844344973564148, 0.24074414372444153, 0.3530448377132416, 0.4653455317020416, 0.5776461958885193, 0.6899468898773193, 0.8022475838661194, 0.9145482778549194, 1.0268490314483643, 1.1391496658325195, 1.2514503002166748, 1.3637510538101196, 1.476051688194275, 1.5883524417877197, 1.700653076171875, 1.8129538297653198, 1.925254464149475, 2.03755521774292, 2.149855852127075, 2.2621564865112305, 2.374457359313965, 2.48675799369812, 2.5990586280822754, 2.7113592624664307, 2.823660135269165, 2.9359607696533203, 3.0482614040374756]}, "Gradients/up3.up.bias": {"_type": "histogram", "values": [1, 0, 0, 0, 0, 0, 0, 0, 1, 0, 0, 1, 1, 1, 1, 0, 2, 0, 1, 0, 3, 1, 3, 2, 1, 3, 0, 1, 5, 3, 8, 2, 4, 3, 3, 4, 5, 3, 4, 2, 3, 1, 2, 5, 3, 1, 5, 6, 4, 1, 0, 4, 2, 2, 3, 0, 6, 2, 3, 0, 1, 1, 2, 2], "bins": [-1.6639942259644158e-05, -1.6214702554862015e-05, -1.5789462850079872e-05, -1.536422314529773e-05, -1.4938983440515585e-05, -1.4513743735733442e-05, -1.4088504940446e-05, -1.3663265235663857e-05, -1.3238025530881714e-05, -1.281278582609957e-05, -1.2387546121317428e-05, -1.1962306416535284e-05, -1.1537066711753141e-05, -1.1111827006970998e-05, -1.0686587302188855e-05, -1.0261347597406711e-05, -9.83610880211927e-06, -9.410869097337127e-06, -8.985629392554983e-06, -8.56038968777284e-06, -8.135149982990697e-06, -7.709910278208554e-06, -7.2846705734264106e-06, -6.859430868644267e-06, -6.434191163862124e-06, -6.008951913827332e-06, -5.5837122090451885e-06, -5.158472504263045e-06, -4.733232799480902e-06, -4.307993094698759e-06, -3.8827538446639664e-06, -3.4575141398818232e-06, -3.03227443509968e-06, -2.6070347303175367e-06, -2.181795252909069e-06, -1.7565555481269257e-06, -1.3313159570316202e-06, -9.060763659363147e-07, -4.808367179975903e-07, -5.559709848057537e-08, 3.696425210364396e-07, 7.948821121317451e-07, 1.2201217032270506e-06, 1.6453614080091938e-06, 2.070601112791337e-06, 2.495840590199805e-06, 2.921080294981948e-06, 3.346319772390416e-06, 3.771559477172559e-06, 4.196799181954702e-06, 4.622038886736846e-06, 5.047278136771638e-06, 5.472517841553781e-06, 5.897757546335924e-06, 6.322997251118068e-06, 6.748236955900211e-06, 7.173476660682354e-06, 7.5987159107171465e-06, 8.02395607024664e-06, 8.449194865534082e-06, 8.874434570316225e-06, 9.299674275098369e-06, 9.724913979880512e-06, 1.0150153684662655e-05, 1.0575393389444798e-05]}, "Weights/up3.conv.double_conv.0.weight": {"_type": "histogram", "values": [4, 3, 5, 12, 19, 27, 39, 59, 82, 88, 144, 198, 262, 392, 606, 952, 1426, 2096, 3007, 4457, 6038, 7998, 10377, 12849, 15186, 17605, 20133, 22195, 25980, 29133, 21103, 18179, 15659, 12920, 10459, 8448, 6731, 5252, 3958, 3123, 2326, 1612, 1178, 801, 584, 386, 293, 187, 126, 73, 41, 33, 16, 10, 13, 11, 4, 6, 3, 1, 1, 2, 0, 1], "bins": [-2.559784412384033, -2.4717581272125244, -2.3837318420410156, -2.295705556869507, -2.207679271697998, -2.1196529865264893, -2.0316267013549805, -1.9436005353927612, -1.8555742502212524, -1.7675479650497437, -1.6795216798782349, -1.591495394706726, -1.5034692287445068, -1.415442943572998, -1.3274166584014893, -1.2393903732299805, -1.1513640880584717, -1.063337802886963, -0.9753115177154541, -0.8872852921485901, -0.7992590069770813, -0.7112327218055725, -0.6232064962387085, -0.5351802110671997, -0.4471539258956909, -0.35912764072418213, -0.2711013853549957, -0.18307511508464813, -0.09504884481430054, -0.007022574543952942, 0.08100369572639465, 0.16902996599674225, 0.25705623626708984, 0.34508252143859863, 0.43310877680778503, 0.5211350321769714, 0.6091613173484802, 0.697187602519989, 0.785213828086853, 0.8732401132583618, 0.9612663984298706, 1.0492926836013794, 1.1373189687728882, 1.225345253944397, 1.3133714199066162, 1.401397705078125, 1.4894239902496338, 1.5774502754211426, 1.6654765605926514, 1.7535028457641602, 1.841529130935669, 1.9295554161071777, 2.0175817012786865, 2.1056079864501953, 2.193634271621704, 2.281660556793213, 2.3696866035461426, 2.4577128887176514, 2.54573917388916, 2.633765459060669, 2.7217917442321777, 2.8098180294036865, 2.8978443145751953, 2.985870599746704, 3.073896884918213]}, "Gradients/up3.conv.double_conv.0.weight": {"_type": "histogram", "values": [3, 5, 5, 4, 11, 15, 8, 15, 14, 28, 36, 36, 35, 46, 58, 61, 82, 141, 157, 224, 289, 361, 481, 649, 877, 1261, 2051, 3209, 5395, 9358, 24265, 201820, 21304, 8584, 4670, 2889, 1797, 1171, 905, 648, 437, 316, 280, 198, 139, 101, 82, 91, 68, 64, 36, 31, 18, 17, 9, 18, 7, 10, 6, 7, 5, 2, 0, 2], "bins": [-0.0002051841001957655, -0.00019864970818161964, -0.0001921153161674738, -0.00018558092415332794, -0.0001790465321391821, -0.00017251214012503624, -0.0001659777481108904, -0.0001594433415448293, -0.00015290894953068346, -0.0001463745575165376, -0.00013984016550239176, -0.0001333057734882459, -0.00012677138147410005, -0.0001202369894599542, -0.00011370259744580835, -0.0001071682054316625, -0.00010063381341751665, -9.409941412741318e-05, -8.756502211326733e-05, -8.103063009912148e-05, -7.449623808497563e-05, -6.796184607082978e-05, -6.142745405668393e-05, -5.489305840455927e-05, -4.835866275243461e-05, -4.182427073828876e-05, -3.528987872414291e-05, -2.8755484891007654e-05, -2.22210910578724e-05, -1.568669904372655e-05, -9.152305210591294e-06, -2.6179125143244164e-06, 3.916480636689812e-06, 1.0450873560330365e-05, 1.6985266483970918e-05, 2.3519660317106172e-05, 3.0054052331252024e-05, 3.658844798337668e-05, 4.312283999752253e-05, 4.9657232011668384e-05, 5.6191624025814235e-05, 6.272601603996009e-05, 6.926041533006355e-05, 7.57948073442094e-05, 8.232919935835525e-05, 8.88635913725011e-05, 9.539798338664696e-05, 0.00010193237540079281, 0.00010846677469089627, 0.00011500116670504212, 0.00012153555871918797, 0.00012806995073333383, 0.00013460434274747968, 0.00014113873476162553, 0.00014767312677577138, 0.00015420751878991723, 0.00016074191080406308, 0.00016727630281820893, 0.00017381070938427, 0.00018034510139841586, 0.00018687949341256171, 0.00019341388542670757, 0.00019994827744085342, 0.00020648266945499927, 0.00021301706146914512]}, "Weights/up3.conv.double_conv.1.weight": {"_type": "histogram", "values": [1, 0, 0, 3, 1, 0, 1, 0, 1, 1, 3, 2, 0, 0, 0, 2, 1, 2, 1, 0, 1, 4, 0, 3, 2, 2, 4, 4, 4, 4, 3, 4, 2, 2, 1, 5, 6, 3, 4, 2, 4, 2, 1, 2, 3, 4, 5, 2, 0, 1, 1, 3, 3, 3, 4, 3, 2, 1, 1, 1, 1, 0, 0, 2], "bins": [-0.11800491809844971, -0.0863075777888298, -0.0546102374792099, -0.022912897169589996, 0.008784443140029907, 0.04048178344964981, 0.07217912375926971, 0.10387646406888962, 0.13557380437850952, 0.16727113723754883, 0.19896848499774933, 0.23066583275794983, 0.26236316561698914, 0.29406049847602844, 0.32575786113739014, 0.35745519399642944, 0.38915252685546875, 0.42084985971450806, 0.45254719257354736, 0.48424455523490906, 0.515941858291626, 0.5476392507553101, 0.5793365836143494, 0.6110339164733887, 0.642731249332428, 0.6744285821914673, 0.7061259150505066, 0.7378232479095459, 0.76952064037323, 0.8012179732322693, 0.8329153060913086, 0.8646126389503479, 0.8963099718093872, 0.9280073046684265, 0.9597046375274658, 0.9914019703865051, 1.0230993032455444, 1.0547966957092285, 1.086493968963623, 1.1181913614273071, 1.1498887538909912, 1.1815860271453857, 1.2132834196090698, 1.2449806928634644, 1.2766780853271484, 1.308375358581543, 1.340072751045227, 1.3717700242996216, 1.4034674167633057, 1.4351648092269897, 1.4668620824813843, 1.4985594749450684, 1.530256748199463, 1.561954140663147, 1.5936514139175415, 1.6253488063812256, 1.6570460796356201, 1.6887434720993042, 1.7204408645629883, 1.7521381378173828, 1.783835530281067, 1.8155328035354614, 1.8472301959991455, 1.87892746925354, 1.9106248617172241]}, "Gradients/up3.conv.double_conv.1.weight": {"_type": "histogram", "values": [1, 0, 0, 0, 0, 0, 0, 1, 0, 0, 0, 0, 0, 0, 1, 0, 0, 1, 0, 0, 1, 0, 0, 1, 0, 0, 0, 2, 0, 2, 0, 2, 1, 1, 2, 1, 3, 3, 3, 3, 3, 5, 3, 8, 17, 6, 13, 10, 5, 4, 4, 3, 1, 3, 4, 2, 5, 2, 0, 0, 0, 0, 0, 1], "bins": [-0.01904160901904106, -0.01860940456390381, -0.018177200108766556, -0.017744997516274452, -0.0173127930611372, -0.016880588605999947, -0.016448384150862694, -0.01601617969572544, -0.015583976171910763, -0.015151772648096085, -0.014719568192958832, -0.014287364669144154, -0.0138551602140069, -0.013422955758869648, -0.01299075223505497, -0.012558547779917717, -0.012126344256103039, -0.011694139800965786, -0.011261936277151108, -0.010829731822013855, -0.010397527366876602, -0.009965323843061924, -0.009533119387924671, -0.009100915864109993, -0.00866871140897274, -0.008236507885158062, -0.007804303430020809, -0.007372099440544844, -0.006939895451068878, -0.006507690995931625, -0.00607548700645566, -0.005643283016979694, -0.005211079027503729, -0.004778875038027763, -0.004346671048551798, -0.003914467059075832, -0.003482262836769223, -0.003050058614462614, -0.0026178546249866486, -0.002185650635510683, -0.0017534465296193957, -0.0013212424237281084, -0.0008890384342521429, -0.0004568343283608556, -2.4630280677229166e-05, 0.00040757376700639725, 0.0008397778728976846, 0.00127198186237365, 0.0017041859682649374, 0.002136389957740903, 0.002568594180047512, 0.0030007981695234776, 0.003433002158999443, 0.003865206381306052, 0.004297410137951374, 0.004729614593088627, 0.005161818582564592, 0.005594022572040558, 0.006026226561516523, 0.006458430550992489, 0.006890634540468454, 0.007322838995605707, 0.007755042985081673, 0.00818724650889635, 0.008619450964033604]}, "Weights/up3.conv.double_conv.1.bias": {"_type": "histogram", "values": [1, 0, 1, 2, 2, 0, 0, 0, 2, 1, 0, 1, 3, 0, 2, 2, 8, 3, 3, 3, 3, 5, 4, 4, 3, 3, 0, 2, 2, 4, 2, 2, 3, 6, 0, 2, 0, 2, 4, 5, 2, 6, 5, 2, 4, 2, 3, 2, 1, 0, 2, 0, 2, 1, 2, 0, 1, 1, 1, 0, 0, 0, 0, 1], "bins": [-0.9967584609985352, -0.9667109847068787, -0.9366635084152222, -0.9066160321235657, -0.8765685558319092, -0.8465210795402527, -0.816473662853241, -0.7864261865615845, -0.756378710269928, -0.7263312339782715, -0.696283757686615, -0.6662362813949585, -0.636188805103302, -0.6061413288116455, -0.576093852519989, -0.5460463762283325, -0.5159989595413208, -0.4859514534473419, -0.4559039771556854, -0.4258565306663513, -0.3958090543746948, -0.36576157808303833, -0.33571410179138184, -0.30566662549972534, -0.27561914920806885, -0.24557168781757355, -0.21552422642707825, -0.18547675013542175, -0.15542927384376526, -0.12538181245326996, -0.09533433616161346, -0.06528686732053757, -0.03523939847946167, -0.0051919277757406235, 0.024855542927980423, 0.05490301549434662, 0.08495048433542252, 0.11499795317649841, 0.1450454294681549, 0.1750928908586502, 0.2051403671503067, 0.2351878434419632, 0.2652353048324585, 0.295282781124115, 0.3253302574157715, 0.355377733707428, 0.3854251801967621, 0.4154726564884186, 0.4455201327800751, 0.47556760907173157, 0.5056150555610657, 0.5356625318527222, 0.5657100081443787, 0.5957574844360352, 0.6258049607276917, 0.6558524370193481, 0.6858999133110046, 0.7159473896026611, 0.7459948658943176, 0.7760422825813293, 0.8060897588729858, 0.8361372351646423, 0.8661847114562988, 0.8962321877479553, 0.9262796640396118]}, "Gradients/up3.conv.double_conv.1.bias": {"_type": "histogram", "values": [1, 0, 0, 0, 1, 0, 0, 0, 0, 1, 0, 0, 0, 1, 0, 0, 0, 0, 0, 0, 0, 0, 2, 0, 2, 2, 1, 0, 0, 0, 1, 3, 1, 3, 1, 2, 4, 8, 3, 8, 5, 7, 16, 8, 7, 7, 8, 9, 3, 2, 2, 3, 1, 0, 2, 0, 1, 0, 0, 0, 0, 0, 0, 2], "bins": [-0.0064855217933654785, -0.006334205158054829, -0.006182888988405466, -0.006031572353094816, -0.005880255717784166, -0.0057289390824735165, -0.005577622912824154, -0.005426306277513504, -0.005274989642202854, -0.005123673006892204, -0.004972356837242842, -0.004821040201932192, -0.004669723566621542, -0.004518407396972179, -0.0043670907616615295, -0.00421577412635088, -0.00406445749104023, -0.003913141321390867, -0.0037618246860802174, -0.0036105080507695675, -0.0034591916482895613, -0.0033078750129789114, -0.003156558610498905, -0.003005242208018899, -0.002853925572708249, -0.002702609170228243, -0.002551292534917593, -0.002399976132437587, -0.002248659497126937, -0.0020973430946469307, -0.0019460265757516026, -0.0017947100568562746, -0.0016433935379609466, -0.0014920770190656185, -0.0013407605001702905, -0.0011894439812749624, -0.0010381274623796344, -0.0008868110016919672, -0.0007354944827966392, -0.0005841779639013112, -0.00043286147410981357, -0.0002815449552144855, -0.00013022846542298794, 2.10880498343613e-05, 0.00017240455781575292, 0.00032372106215916574, 0.0004750375810544938, 0.0006263540708459914, 0.0007776705897413194, 0.0009289871086366475, 0.0010803035693243146, 0.0012316200882196426, 0.0013829366071149707, 0.0015342531260102987, 0.0016855696449056268, 0.0018368861638009548, 0.001988202566280961, 0.002139519201591611, 0.002290835604071617, 0.002442152239382267, 0.002593468641862273, 0.002744785277172923, 0.0028961016796529293, 0.003047418314963579, 0.0031987347174435854]}, "Weights/up3.conv.double_conv.3.weight": {"_type": "histogram", "values": [2, 0, 2, 3, 7, 11, 26, 39, 50, 86, 135, 221, 271, 340, 497, 651, 887, 1226, 1644, 2234, 2722, 3593, 4218, 4882, 5554, 6276, 6620, 7531, 8729, 10252, 24930, 13826, 7283, 5868, 4928, 4185, 3665, 2982, 2502, 2069, 1608, 1245, 955, 713, 501, 402, 325, 185, 186, 115, 78, 63, 35, 35, 17, 14, 13, 10, 3, 1, 1, 1, 1, 2], "bins": [-1.9195605516433716, -1.8572509288787842, -1.7949413061141968, -1.7326316833496094, -1.670322060585022, -1.608012318611145, -1.5457026958465576, -1.4833930730819702, -1.4210834503173828, -1.3587738275527954, -1.296464204788208, -1.2341545820236206, -1.1718449592590332, -1.1095353364944458, -1.0472255945205688, -0.9849160313606262, -0.922606348991394, -0.8602967262268066, -0.7979871034622192, -0.7356774806976318, -0.6733678579330444, -0.6110581755638123, -0.5487485527992249, -0.48643893003463745, -0.42412930727005005, -0.36181965470314026, -0.29951003193855286, -0.23720037937164307, -0.17489075660705566, -0.11258111149072647, -0.05027147755026817, 0.012038158252835274, 0.07434779405593872, 0.13665743172168732, 0.1989670693874359, 0.2612766921520233, 0.3235863447189331, 0.3858959674835205, 0.4482056200504303, 0.5105152726173401, 0.5728248953819275, 0.6351345181465149, 0.6974441409111023, 0.7597537636756897, 0.8220634460449219, 0.8843730688095093, 0.9466826915740967, 1.008992314338684, 1.0713019371032715, 1.1336115598678589, 1.1959211826324463, 1.2582309246063232, 1.3205405473709106, 1.382850170135498, 1.4451597929000854, 1.5074694156646729, 1.5697790384292603, 1.6320886611938477, 1.694398283958435, 1.7567079067230225, 1.8190176486968994, 1.8813272714614868, 1.9436368942260742, 2.005946397781372, 2.068256139755249]}, "Gradients/up3.conv.double_conv.3.weight": {"_type": "histogram", "values": [5, 4, 0, 0, 0, 0, 0, 0, 0, 0, 1, 4, 11, 6, 4, 9, 7, 6, 14, 15, 15, 19, 14, 27, 40, 50, 82, 95, 97, 136, 180, 301, 481, 873, 1978, 5088, 106985, 24339, 3966, 1122, 549, 317, 188, 161, 58, 34, 29, 37, 27, 28, 8, 3, 6, 9, 19, 0, 0, 0, 0, 0, 0, 0, 1, 8], "bins": [-0.0013577211648225784, -0.0013209590688347816, -0.0012841970892623067, -0.00124743499327451, -0.001210673013702035, -0.0011739109177142382, -0.0011371489381417632, -0.0011003868421539664, -0.0010636248625814915, -0.0010268627665936947, -0.0009901007870212197, -0.0009533387492410839, -0.000916576711460948, -0.0008798146736808121, -0.0008430526359006763, -0.0008062905981205404, -0.0007695285603404045, -0.0007327664643526077, -0.0006960044265724719, -0.000659242388792336, -0.0006224803510122001, -0.0005857183132320642, -0.0005489562754519284, -0.0005121942376717925, -0.00047543219989165664, -0.00043867016211152077, -0.0004019081243313849, -0.00036514608655124903, -0.00032838404877111316, -0.0002916220109909773, -0.0002548599732108414, -0.00021809793543070555, -0.00018133589765056968, -0.0001445738598704338, -0.00010781182209029794, -7.104977703420445e-05, -3.428773925406858e-05, 2.4743003450566903e-06, 3.9236339944181964e-05, 7.599838136229664e-05, 0.00011276041914243251, 0.00014952245692256838, 0.00018628449470270425, 0.00022304653248284012, 0.0002598085848148912, 0.0002965706225950271, 0.00033333266037516296, 0.00037009469815529883, 0.0004068567359354347, 0.00044361877371557057, 0.00048038081149570644, 0.0005171428783796728, 0.0005539049161598086, 0.0005906669539399445, 0.0006274289917200804, 0.0006641910295002162, 0.0007009530672803521, 0.000737715105060488, 0.0007744771428406239, 0.0008112391806207597, 0.0008480012184008956, 0.0008847632561810315, 0.0009215252939611673, 0.0009582873317413032, 0.000995049369521439]}, "Weights/up3.conv.double_conv.4.weight": {"_type": "histogram", "values": [1, 0, 0, 0, 0, 0, 0, 3, 0, 2, 0, 0, 2, 1, 1, 0, 1, 2, 3, 0, 3, 2, 0, 2, 4, 0, 0, 4, 3, 4, 6, 5, 4, 1, 7, 2, 2, 2, 3, 3, 7, 4, 2, 1, 4, 4, 5, 0, 4, 2, 4, 4, 1, 4, 0, 0, 3, 2, 1, 1, 1, 0, 0, 1], "bins": [-1.1400787830352783, -1.1040996313095093, -1.0681205987930298, -1.0321414470672607, -0.9961624145507812, -0.960183322429657, -0.9242041707038879, -0.8882250785827637, -0.8522459864616394, -0.8162668943405151, -0.7802878022193909, -0.7443087100982666, -0.7083296179771423, -0.6723505258560181, -0.6363714337348938, -0.6003923416137695, -0.5644131898880005, -0.5284340977668762, -0.49245503544807434, -0.4564759135246277, -0.4204968214035034, -0.38451772928237915, -0.3485386371612549, -0.3125595450401306, -0.27658045291900635, -0.2406013458967209, -0.20462223887443542, -0.16864314675331116, -0.1326640546321869, -0.09668494760990143, -0.06070585176348686, -0.024726754054427147, 0.011252343654632568, 0.04723144322633743, 0.0832105427980423, 0.11918963491916656, 0.15516874194145203, 0.1911478340625763, 0.22712692618370056, 0.26310601830482483, 0.2990851402282715, 0.33506423234939575, 0.37104332447052, 0.4070224165916443, 0.44300150871276855, 0.4789806008338928, 0.5149596929550171, 0.5509387850761414, 0.5869178771972656, 0.6228970289230347, 0.6588761210441589, 0.6948552131652832, 0.7308343052864075, 0.7668133974075317, 0.802792489528656, 0.8387715816497803, 0.8747506737709045, 0.9107297658920288, 0.9467088580131531, 0.9826880097389221, 1.0186671018600464, 1.0546461343765259, 1.090625286102295, 1.1266043186187744, 1.1625834703445435]}, "Gradients/up3.conv.double_conv.4.weight": {"_type": "histogram", "values": [1, 0, 0, 0, 0, 0, 0, 0, 0, 0, 0, 0, 0, 0, 0, 0, 0, 0, 0, 1, 0, 0, 0, 1, 0, 0, 0, 1, 0, 1, 3, 1, 3, 0, 0, 3, 1, 0, 2, 3, 4, 2, 3, 4, 4, 7, 5, 3, 50, 4, 4, 3, 5, 2, 2, 1, 2, 0, 0, 0, 1, 0, 0, 1], "bins": [-0.09764467924833298, -0.09564206004142761, -0.09363944828510284, -0.09163682907819748, -0.08963420987129211, -0.08763159066438675, -0.08562897890806198, -0.08362635970115662, -0.08162374049425125, -0.07962112128734589, -0.07761850953102112, -0.07561589032411575, -0.07361327111721039, -0.07161065191030502, -0.06960804015398026, -0.06760542094707489, -0.06560280174016953, -0.06360018998384476, -0.06159757077693939, -0.05959495157003403, -0.05759233608841896, -0.055589716881513596, -0.05358710139989853, -0.051584482192993164, -0.0495818667113781, -0.04757924750447273, -0.045576632022857666, -0.0435740128159523, -0.041571397334337234, -0.03956877812743187, -0.0375661626458168, -0.03556354343891144, -0.03356092795729637, -0.031558312475681305, -0.02955569326877594, -0.027553075924515724, -0.02555045858025551, -0.023547841235995293, -0.021545223891735077, -0.01954260654747486, -0.017539989203214645, -0.015537372790277004, -0.013534755446016788, -0.011532138101756573, -0.009529521688818932, -0.0075269038788974285, -0.0055242870002985, -0.0035216696560382843, -0.0015190523117780685, 0.0004835649160668254, 0.0024861821439117193, 0.004488799255341291, 0.006491416599601507, 0.008494033478200436, 0.010496650822460651, 0.012499268166720867, 0.014501885510981083, 0.016504501923918724, 0.01850711926817894, 0.020509736612439156, 0.02251235395669937, 0.024514971300959587, 0.026517588645219803, 0.02852020598948002, 0.030522823333740234]}, "Weights/up3.conv.double_conv.4.bias": {"_type": "histogram", "values": [1, 0, 0, 0, 0, 2, 0, 0, 1, 0, 0, 1, 3, 2, 0, 3, 2, 0, 1, 1, 2, 3, 3, 4, 3, 6, 7, 3, 5, 8, 8, 1, 4, 5, 3, 4, 2, 2, 3, 1, 3, 2, 2, 3, 3, 4, 1, 2, 2, 2, 1, 3, 3, 0, 1, 1, 0, 0, 0, 0, 0, 0, 0, 1], "bins": [-1.5362379550933838, -1.501065731048584, -1.4658935070037842, -1.4307212829589844, -1.3955490589141846, -1.3603768348693848, -1.3252044916152954, -1.2900322675704956, -1.2548600435256958, -1.219687819480896, -1.1845155954360962, -1.1493433713912964, -1.1141711473464966, -1.0789989233016968, -1.043826699256897, -1.0086544752120972, -0.9734821915626526, -0.9383099675178528, -0.903137743473053, -0.8679655194282532, -0.8327932953834534, -0.7976210117340088, -0.762448787689209, -0.7272765636444092, -0.6921043395996094, -0.6569321155548096, -0.6217598915100098, -0.5865876078605652, -0.5514153838157654, -0.5162431597709656, -0.48107093572616577, -0.4458986818790436, -0.4107264578342438, -0.37555423378944397, -0.3403819799423218, -0.305209755897522, -0.27003753185272217, -0.23486529290676117, -0.19969305396080017, -0.16452081501483917, -0.12934857606887817, -0.09417635202407837, -0.05900411307811737, -0.02383188158273697, 0.011340353637933731, 0.04651258885860443, 0.08168482035398483, 0.11685705929994583, 0.15202929079532623, 0.18720152974128723, 0.22237375378608704, 0.25754600763320923, 0.29271823167800903, 0.32789045572280884, 0.36306270956993103, 0.39823493361473083, 0.43340715765953064, 0.46857941150665283, 0.5037516355514526, 0.5389238595962524, 0.5740960836410522, 0.609268307685852, 0.6444405913352966, 0.6796128153800964, 0.7147850394248962]}, "Gradients/up3.conv.double_conv.4.bias": {"_type": "histogram", "values": [2, 0, 0, 0, 0, 0, 0, 0, 0, 0, 0, 0, 0, 0, 0, 0, 0, 0, 0, 1, 2, 0, 0, 2, 0, 0, 1, 0, 0, 2, 1, 2, 5, 10, 9, 6, 47, 4, 5, 1, 3, 4, 2, 1, 3, 1, 1, 1, 1, 1, 2, 0, 2, 1, 1, 0, 0, 1, 0, 0, 1, 1, 0, 1], "bins": [-0.041113972663879395, -0.039986833930015564, -0.03885969519615173, -0.0377325564622879, -0.03660541772842407, -0.03547827899456024, -0.03435114026069641, -0.03322400152683258, -0.03209686279296875, -0.03096972592175007, -0.029842587187886238, -0.028715448454022408, -0.027588309720158577, -0.026461170986294746, -0.025334032252430916, -0.024206893518567085, -0.023079754784703255, -0.021952616050839424, -0.020825477316975594, -0.019698338583111763, -0.018571199849247932, -0.017444061115384102, -0.01631692238152027, -0.015189784578979015, -0.014062645845115185, -0.012935507111251354, -0.011808368377387524, -0.010681229643523693, -0.009554091840982437, -0.008426953107118607, -0.007299814373254776, -0.0061726756393909454, -0.005045536905527115, -0.003918398171663284, -0.0027912596706300974, -0.0016641210531815886, -0.0005369824357330799, 0.0005901561817154288, 0.0017172947991639376, 0.0028444333001971245, 0.003971572034060955, 0.005098710767924786, 0.006225849501788616, 0.0073529877699911594, 0.008480126038193703, 0.009607264772057533, 0.010734403505921364, 0.011861542239785194, 0.012988680973649025, 0.014115819707512856, 0.015242958441376686, 0.016370097175240517, 0.017497235909104347, 0.018624374642968178, 0.01975151337683201, 0.02087865211069584, 0.02200578898191452, 0.02313292771577835, 0.02426006644964218, 0.025387205183506012, 0.026514343917369843, 0.027641482651233673, 0.028768621385097504, 0.029895760118961334, 0.031022898852825165]}, "Weights/up4.up.weight": {"_type": "histogram", "values": [3, 0, 3, 4, 6, 5, 5, 5, 18, 19, 12, 24, 47, 56, 62, 86, 97, 150, 203, 230, 361, 391, 430, 580, 656, 874, 1025, 1165, 1349, 1459, 1809, 2430, 4107, 2672, 2050, 1685, 1516, 1219, 1067, 977, 772, 589, 522, 450, 317, 282, 235, 175, 128, 89, 106, 64, 39, 34, 34, 20, 14, 13, 10, 5, 5, 3, 3, 2], "bins": [-1.6996448040008545, -1.6476356983184814, -1.5956265926361084, -1.5436174869537354, -1.4916083812713623, -1.4395992755889893, -1.3875902891159058, -1.3355811834335327, -1.2835720777511597, -1.2315629720687866, -1.1795538663864136, -1.1275447607040405, -1.0755356550216675, -1.0235265493392944, -0.9715175032615662, -0.9195083975791931, -0.8674992918968201, -0.815490186214447, -0.763481080532074, -0.7114720344543457, -0.6594629287719727, -0.6074538230895996, -0.5554447174072266, -0.5034356117248535, -0.45142653584480286, -0.3994174301624298, -0.34740835428237915, -0.2953992486000061, -0.24339015781879425, -0.1913810670375824, -0.13937196135520935, -0.0873628705739975, -0.035353779792785645, 0.016655314713716507, 0.06866440922021866, 0.12067350745201111, 0.17268259823322296, 0.22469168901443481, 0.27670079469680786, 0.3287098705768585, 0.38071897625923157, 0.4327280819416046, 0.4847371578216553, 0.5367462635040283, 0.5887553691864014, 0.6407644748687744, 0.6927735209465027, 0.7447826266288757, 0.7967917323112488, 0.8488008379936218, 0.9008099436759949, 0.9528189897537231, 1.0048280954360962, 1.0568372011184692, 1.1088463068008423, 1.1608554124832153, 1.2128645181655884, 1.2648736238479614, 1.3168827295303345, 1.368891716003418, 1.420900821685791, 1.472909927368164, 1.524919033050537, 1.5769281387329102, 1.6289372444152832]}, "Gradients/up4.up.weight": {"_type": "histogram", "values": [2, 0, 0, 0, 2, 1, 1, 2, 0, 1, 5, 2, 1, 3, 5, 5, 9, 6, 7, 10, 16, 12, 18, 31, 47, 51, 83, 134, 241, 391, 576, 1022, 2052, 17131, 5904, 2160, 1105, 647, 356, 196, 171, 97, 71, 46, 19, 21, 18, 17, 9, 11, 16, 6, 9, 2, 3, 3, 1, 4, 2, 2, 2, 1, 1, 1], "bins": [-0.0025956244207918644, -0.0025191563181579113, -0.002442688448354602, -0.0023662205785512924, -0.0022897524759173393, -0.0022132843732833862, -0.002136816503480077, -0.0020603486336767673, -0.0019838805310428143, -0.001907412544824183, -0.0018309445586055517, -0.0017544765723869205, -0.0016780085861682892, -0.001601540599949658, -0.0015250726137310266, -0.0014486046275123954, -0.0013721366412937641, -0.0012956686550751328, -0.0012192006688565016, -0.0011427326826378703, -0.001066264696419239, -0.0009897967102006078, -0.0009133287239819765, -0.0008368607377633452, -0.000760392751544714, -0.0006839247653260827, -0.0006074567791074514, -0.0005309887928888202, -0.0004545208066701889, -0.00037805282045155764, -0.00030158483423292637, -0.0002251168480142951, -0.00014864886179566383, -7.218087557703257e-05, 4.2871106415987015e-06, 8.075509686022997e-05, 0.00015722308307886124, 0.0002336910692974925, 0.00031015905551612377, 0.00038662704173475504, 0.0004630950279533863, 0.0005395630141720176, 0.0006160310003906488, 0.0006924989866092801, 0.0007689669728279114, 0.0008454349590465426, 0.0009219029452651739, 0.0009983709314838052, 0.0010748389177024364, 0.0011513069039210677, 0.001227774890139699, 0.0013042428763583302, 0.0013807108625769615, 0.0014571788487955928, 0.001533646835014224, 0.0016101148212328553, 0.0016865828074514866, 0.0017630507936701179, 0.0018395187798887491, 0.0019159867661073804, 0.0019924547523260117, 0.0020689228549599648, 0.002145390724763274, 0.0022218585945665836, 0.0022983266972005367]}, "Weights/up4.up.bias": {"_type": "histogram", "values": [1, 0, 0, 0, 1, 1, 0, 1, 2, 0, 0, 0, 1, 3, 0, 2, 1, 1, 3, 0, 0, 0, 0, 1, 2, 2, 0, 0, 2, 0, 0, 3, 0, 1, 2, 2, 1, 2, 0, 0, 1, 3, 2, 2, 2, 0, 1, 0, 3, 5, 0, 1, 2, 0, 2, 1, 0, 1, 1, 1, 0, 0, 0, 1], "bins": [-5.966928482055664, -5.7895426750183105, -5.612156391143799, -5.434770584106445, -5.257384300231934, -5.07999849319458, -4.902612686157227, -4.725226402282715, -4.547840595245361, -4.370454788208008, -4.193068504333496, -4.015682697296143, -3.83829665184021, -3.6609106063842773, -3.483524799346924, -3.306138753890991, -3.1287527084350586, -2.951366662979126, -2.7739806175231934, -2.59659481048584, -2.4192087650299072, -2.2418227195739746, -2.064436912536621, -1.8870508670806885, -1.7096648216247559, -1.5322787761688232, -1.3548928499221802, -1.177506923675537, -1.0001208782196045, -0.8227348923683167, -0.6453489065170288, -0.46796292066574097, -0.2905769348144531, -0.11319094896316528, 0.06419503688812256, 0.2415810227394104, 0.41896700859069824, 0.5963529944419861, 0.7737389802932739, 0.9511249661445618, 1.1285109519958496, 1.3058969974517822, 1.4832829236984253, 1.6606688499450684, 1.838054895401001, 2.0154409408569336, 2.192826747894287, 2.3702127933502197, 2.5475988388061523, 2.724984884262085, 2.9023709297180176, 3.079756736755371, 3.2571427822113037, 3.4345288276672363, 3.61191463470459, 3.7893006801605225, 3.966686725616455, 4.144072532653809, 4.32145881652832, 4.498844623565674, 4.676230430603027, 4.853616714477539, 5.031002521514893, 5.208388805389404, 5.385774612426758]}, "Gradients/up4.up.bias": {"_type": "histogram", "values": [1, 0, 0, 0, 0, 0, 0, 0, 0, 0, 0, 0, 2, 1, 0, 1, 1, 1, 1, 1, 0, 1, 1, 1, 0, 0, 2, 1, 2, 2, 3, 3, 2, 0, 1, 3, 3, 1, 0, 3, 2, 2, 2, 1, 2, 1, 1, 4, 1, 0, 0, 1, 1, 0, 1, 3, 0, 0, 1, 1, 0, 0, 0, 2], "bins": [-0.00018933718092739582, -0.0001841130288084969, -0.0001788888912415132, -0.00017366473912261426, -0.00016844060155563056, -0.00016321644943673164, -0.00015799231186974794, -0.000152768159750849, -0.0001475440221838653, -0.00014231987006496638, -0.00013709571794606745, -0.00013187158037908375, -0.00012664742826018482, -0.00012142328341724351, -0.0001161991385743022, -0.00011097499373136088, -0.00010575084888841957, -0.00010052670404547825, -9.530255920253694e-05, -9.007841435959563e-05, -8.485426951665431e-05, -7.963011739775538e-05, -7.440597255481407e-05, -6.918182771187276e-05, -6.395768286893144e-05, -5.873353802599013e-05, -5.3509393183048815e-05, -4.8285244702128693e-05, -4.306109985918738e-05, -3.7836955016246065e-05, -3.2612806535325944e-05, -2.738866169238463e-05, -2.2164516849443316e-05, -1.6940372006502002e-05, -1.1716225344571285e-05, -6.492079592135269e-06, -1.2679338396992534e-06, 3.956211912736762e-06, 9.180357665172778e-06, 1.4404503417608794e-05, 1.962864917004481e-05, 2.4852794012986124e-05, 3.007694067491684e-05, 3.530108733684756e-05, 4.052523217978887e-05, 4.5749377022730187e-05, 5.097352550365031e-05, 5.619767034659162e-05, 6.142181518953294e-05, 6.664596003247425e-05, 7.187010487541556e-05, 7.709424971835688e-05, 8.231839456129819e-05, 8.754254668019712e-05, 9.276669152313843e-05, 9.799083636607975e-05, 0.00010321498120902106, 0.00010843912605196238, 0.00011366327089490369, 0.000118887415737845, 0.00012411156785674393, 0.00012933570542372763, 0.00013455985754262656, 0.00013978399510961026, 0.0001450081472285092]}, "Weights/up4.conv.double_conv.0.weight": {"_type": "histogram", "values": [4, 2, 13, 4, 12, 8, 9, 9, 15, 22, 31, 47, 47, 99, 112, 163, 173, 275, 400, 518, 633, 815, 942, 1173, 1539, 1899, 2389, 2726, 3292, 3850, 4345, 4869, 5032, 5176, 4976, 4759, 4402, 3994, 3319, 2753, 2219, 1780, 1375, 964, 751, 488, 369, 264, 195, 134, 98, 69, 39, 33, 25, 18, 24, 13, 11, 5, 5, 2, 0, 1], "bins": [-2.7864139080047607, -2.7037830352783203, -2.621151924133301, -2.5385210514068604, -2.45589017868042, -2.3732593059539795, -2.29062819480896, -2.2079973220825195, -2.125366449356079, -2.0427353382110596, -1.9601044654846191, -1.8774735927581787, -1.7948426008224487, -1.7122117280960083, -1.6295807361602783, -1.546949863433838, -1.464318871498108, -1.381687879562378, -1.2990570068359375, -1.2164260149002075, -1.133795142173767, -1.051164150238037, -0.9685332179069519, -0.8859022855758667, -0.8032713532447815, -0.7206404209136963, -0.6380094885826111, -0.5553785562515259, -0.4727475941181183, -0.3901166617870331, -0.3074856996536255, -0.22485476732254028, -0.14222383499145508, -0.059592895209789276, 0.023038044571876526, 0.10566898435354233, 0.18829992413520813, 0.27093085646629333, 0.3535618185997009, 0.43619275093078613, 0.5188236832618713, 0.6014546155929565, 0.6840855479240417, 0.766716480255127, 0.8493474721908569, 0.9319784045219421, 1.0146093368530273, 1.0972402095794678, 1.1798712015151978, 1.2625021934509277, 1.3451330661773682, 1.4277640581130981, 1.5103949308395386, 1.5930259227752686, 1.675656795501709, 1.758287787437439, 1.840918779373169, 1.9235496520996094, 2.00618052482605, 2.0888116359710693, 2.1714425086975098, 2.25407338142395, 2.3367042541503906, 2.41933536529541, 2.5019662380218506]}, "Gradients/up4.conv.double_conv.0.weight": {"_type": "histogram", "values": [3, 0, 0, 10, 7, 3, 2, 13, 11, 10, 8, 20, 14, 10, 13, 24, 26, 47, 54, 75, 88, 87, 140, 234, 262, 379, 533, 704, 1075, 2262, 5894, 31118, 20026, 4959, 2096, 928, 562, 371, 317, 223, 193, 145, 142, 120, 108, 93, 69, 54, 36, 26, 22, 8, 18, 21, 23, 10, 7, 2, 2, 2, 9, 3, 2, 5], "bins": [-0.0014434537151828408, -0.0013981721131131053, -0.001352890394628048, -0.0013076087925583124, -0.0012623271904885769, -0.0012170455884188414, -0.001171763869933784, -0.0011264822678640485, -0.001081200665794313, -0.0010359189473092556, -0.00099063734523952, -0.0009453557431697845, -0.0009000740828923881, -0.0008547924808226526, -0.0008095108205452561, -0.0007642292184755206, -0.0007189475581981242, -0.0006736658979207277, -0.0006283842958509922, -0.0005831026355735958, -0.0005378210335038602, -0.0004925393732264638, -0.0004472577420528978, -0.00040197611087933183, -0.00035669447970576584, -0.00031141284853219986, -0.0002661312173586339, -0.00022084957163315266, -0.00017556794045958668, -0.0001302863092860207, -8.50046708364971e-05, -3.972303602495231e-05, 5.5585987865924835e-06, 5.0840233598137274e-05, 9.612186840968207e-05, 0.00014140350685920566, 0.00018668513803277165, 0.00023196676920633763, 0.00027724841493181884, 0.0003225300461053848, 0.0003678116772789508, 0.0004130933084525168, 0.0004583749396260828, 0.0005036565707996488, 0.0005489382310770452, 0.0005942198331467807, 0.0006395014934241772, 0.0006847830954939127, 0.0007300647557713091, 0.0007753464160487056, 0.0008206280181184411, 0.0008659096783958375, 0.0009111912804655731, 0.0009564729407429695, 0.001001754542812705, 0.0010470361448824406, 0.001092317863367498, 0.0011375994654372334, 0.001182881067506969, 0.0012281627859920263, 0.0012734443880617619, 0.0013187259901314974, 0.001364007592201233, 0.0014092893106862903, 0.0014545709127560258]}, "Weights/up4.conv.double_conv.1.weight": {"_type": "histogram", "values": [1, 0, 0, 0, 0, 0, 0, 0, 0, 0, 0, 0, 0, 0, 0, 0, 0, 0, 0, 0, 2, 0, 0, 0, 2, 0, 0, 0, 0, 2, 4, 1, 3, 7, 5, 1, 0, 1, 3, 2, 2, 6, 2, 3, 2, 2, 3, 3, 1, 1, 0, 0, 0, 1, 1, 1, 0, 0, 1, 0, 0, 0, 0, 1], "bins": [-0.7110707759857178, -0.6652609705924988, -0.6194512248039246, -0.5736414194107056, -0.5278316736221313, -0.48202186822891235, -0.43621206283569336, -0.39040228724479675, -0.34459251165390015, -0.29878273606300354, -0.25297296047210693, -0.20716315507888794, -0.16135337948799133, -0.11554359644651413, -0.06973381340503693, -0.023924030363559723, 0.02188575267791748, 0.06769553571939468, 0.11350531876087189, 0.1593151092529297, 0.2051248848438263, 0.2509346604347229, 0.2967444658279419, 0.3425542414188385, 0.3883640170097351, 0.4341737926006317, 0.4799835681915283, 0.5257933735847473, 0.5716031789779663, 0.6174129247665405, 0.6632227301597595, 0.7090324759483337, 0.7548422813415527, 0.8006520867347717, 0.846461832523346, 0.8922716379165649, 0.9380813837051392, 0.9838911890983582, 1.0297009944915771, 1.0755107402801514, 1.1213204860687256, 1.1671303510665894, 1.2129400968551636, 1.2587498426437378, 1.3045597076416016, 1.3503694534301758, 1.39617919921875, 1.4419890642166138, 1.487798810005188, 1.5336085557937622, 1.579418420791626, 1.6252281665802002, 1.6710379123687744, 1.7168477773666382, 1.7626575231552124, 1.8084672689437866, 1.8542771339416504, 1.9000868797302246, 1.9458966255187988, 1.991706371307373, 2.0375161170959473, 2.0833261013031006, 2.129135847091675, 2.174945592880249, 2.2207553386688232]}, "Gradients/up4.conv.double_conv.1.weight": {"_type": "histogram", "values": [1, 0, 0, 0, 0, 0, 0, 0, 0, 0, 0, 0, 0, 0, 0, 0, 0, 0, 0, 0, 0, 0, 0, 0, 0, 0, 0, 0, 0, 0, 1, 0, 1, 0, 1, 1, 0, 1, 1, 1, 0, 0, 1, 2, 1, 2, 4, 6, 2, 6, 9, 5, 3, 3, 4, 3, 2, 1, 1, 0, 0, 0, 0, 1], "bins": [-0.07680334150791168, -0.07520284503698349, -0.0736023411154747, -0.07200184464454651, -0.07040134072303772, -0.06880084425210953, -0.06720034033060074, -0.06559984385967255, -0.06399933993816376, -0.062398843467235565, -0.060798343271017075, -0.059197843074798584, -0.05759734287858009, -0.0559968426823616, -0.05439634248614311, -0.05279584228992462, -0.05119534209370613, -0.04959484189748764, -0.04799434170126915, -0.04639384150505066, -0.04479334130883217, -0.04319284111261368, -0.041592344641685486, -0.039991844445466995, -0.038391344249248505, -0.036790844053030014, -0.03519034385681152, -0.03358984366059303, -0.03198934346437454, -0.03038884326815605, -0.02878834307193756, -0.02718784287571907, -0.02558734267950058, -0.02398684434592724, -0.022386344149708748, -0.020785843953490257, -0.019185343757271767, -0.017584843561053276, -0.015984343364834785, -0.01438384409993887, -0.012783343903720379, -0.011182844638824463, -0.009582344442605972, -0.007981844246387482, -0.006381344515830278, -0.004780844319611788, -0.0031803445890545845, -0.0015798446256667376, 2.065533772110939e-05, 0.0016211553011089563, 0.0032216552644968033, 0.004822154995054007, 0.006422655191272497, 0.0080231549218297, 0.009623655118048191, 0.011224155314266682, 0.012824654579162598, 0.014425154775381088, 0.01602565497159958, 0.01762615516781807, 0.01922665536403656, 0.0208271536976099, 0.022427653893828392, 0.024028154090046883, 0.025628654286265373]}, "Weights/up4.conv.double_conv.1.bias": {"_type": "histogram", "values": [2, 1, 1, 0, 1, 1, 2, 1, 0, 0, 1, 3, 1, 0, 0, 1, 0, 1, 2, 0, 3, 1, 1, 1, 1, 6, 1, 3, 1, 0, 2, 1, 1, 0, 1, 1, 2, 4, 2, 0, 1, 1, 1, 1, 1, 0, 1, 0, 1, 0, 1, 1, 0, 0, 2, 2, 0, 0, 0, 0, 0, 0, 0, 1], "bins": [-1.244897723197937, -1.2071558237075806, -1.1694139242172241, -1.1316719055175781, -1.0939300060272217, -1.0561881065368652, -1.0184462070465088, -0.9807043075561523, -0.9429623484611511, -0.9052204489707947, -0.8674785494804382, -0.829736590385437, -0.7919946908950806, -0.7542527914047241, -0.7165108323097229, -0.6787689328193665, -0.6410269737243652, -0.6032850742340088, -0.5655431747436523, -0.5278012156486511, -0.4900593161582947, -0.45231741666793823, -0.4145754873752594, -0.37683355808258057, -0.3390916585922241, -0.3013497292995453, -0.26360780000686646, -0.22586588561534882, -0.18812397122383118, -0.15038204193115234, -0.1126401275396347, -0.07489820569753647, -0.03715628385543823, 0.0005856361240148544, 0.03832755610346794, 0.07606947422027588, 0.11381139606237411, 0.15155331790447235, 0.18929523229599, 0.22703716158866882, 0.26477909088134766, 0.3025209903717041, 0.34026291966438293, 0.37800484895706177, 0.4157467484474182, 0.45348867774009705, 0.4912306070327759, 0.5289725065231323, 0.5667144060134888, 0.60445636510849, 0.6421982645988464, 0.6799402236938477, 0.7176821231842041, 0.7554240226745605, 0.7931659817695618, 0.8309078812599182, 0.8686497807502747, 0.9063917398452759, 0.9441336393356323, 0.9818755388259888, 1.0196174383163452, 1.0573593378067017, 1.0951013565063477, 1.132843255996704, 1.1705851554870605]}, "Gradients/up4.conv.double_conv.1.bias": {"_type": "histogram", "values": [1, 0, 0, 0, 0, 0, 0, 0, 0, 0, 0, 0, 0, 0, 0, 0, 0, 0, 0, 0, 0, 1, 1, 1, 1, 0, 1, 0, 0, 0, 0, 1, 0, 1, 2, 3, 2, 4, 3, 4, 2, 2, 4, 3, 2, 2, 1, 1, 1, 4, 1, 3, 3, 1, 0, 3, 2, 0, 1, 0, 0, 0, 0, 2], "bins": [-0.02829068899154663, -0.02757810615003109, -0.0268655214458704, -0.02615293860435486, -0.025440353900194168, -0.024727771058678627, -0.024015188217163086, -0.023302603513002396, -0.022590020671486855, -0.021877437829971313, -0.021164853125810623, -0.020452270284295082, -0.01973968744277954, -0.01902710273861885, -0.01831451989710331, -0.01760193519294262, -0.016889352351427078, -0.016176769509911537, -0.015464184805750847, -0.014751601964235306, -0.01403901819139719, -0.013326434418559074, -0.012613851577043533, -0.011901267804205418, -0.011188684031367302, -0.010476100258529186, -0.00976351648569107, -0.00905093364417553, -0.008338349871337414, -0.007625766098499298, -0.00691318279132247, -0.006200599484145641, -0.005488015711307526, -0.00477543193846941, -0.0040628486312925816, -0.0033502650912851095, -0.0026376815512776375, -0.0019250980112701654, -0.0012125144712626934, -0.0004999309312552214, 0.00021265260875225067, 0.0009252361487597227, 0.0016378196887671947, 0.002350403228774667, 0.003062986768782139, 0.003775570308789611, 0.004488153848797083, 0.005200737155973911, 0.005913320928812027, 0.006625904701650143, 0.007338488008826971, 0.0080510713160038, 0.008763655088841915, 0.00947623886168003, 0.010188821703195572, 0.010901405476033688, 0.011613989248871803, 0.012326573021709919, 0.013039156794548035, 0.013751739636063576, 0.014464323408901691, 0.015176907181739807, 0.015889490023255348, 0.01660207472741604, 0.01731465756893158]}, "Weights/up4.conv.double_conv.3.weight": {"_type": "histogram", "values": [2, 6, 5, 5, 12, 24, 44, 49, 49, 55, 80, 80, 122, 188, 183, 273, 328, 438, 522, 583, 708, 906, 1026, 1198, 1464, 1852, 2191, 2551, 3086, 4238, 2556, 2184, 1816, 1515, 1178, 958, 772, 658, 548, 422, 390, 319, 263, 203, 187, 125, 109, 108, 64, 53, 61, 41, 19, 13, 17, 9, 2, 2, 0, 2, 1, 0, 0, 1], "bins": [-2.2529659271240234, -2.176041603088379, -2.0991172790527344, -2.022193193435669, -1.9452688694000244, -1.8683445453643799, -1.791420340538025, -1.7144960165023804, -1.6375718116760254, -1.5606474876403809, -1.4837231636047363, -1.4067989587783813, -1.3298746347427368, -1.2529504299163818, -1.1760261058807373, -1.0991019010543823, -1.0221775770187378, -0.945253312587738, -0.8683290481567383, -0.7914047837257385, -0.7144805192947388, -0.6375561952590942, -0.5606319308280945, -0.4837076663970947, -0.40678340196609497, -0.3298591375350952, -0.25293487310409546, -0.17601057887077332, -0.09908631443977356, -0.022162042558193207, 0.054762229323387146, 0.1316865086555481, 0.20861077308654785, 0.2855350375175476, 0.36245930194854736, 0.4393835961818695, 0.5163078308105469, 0.5932321548461914, 0.6701564192771912, 0.7470806837081909, 0.8240049481391907, 0.9009292125701904, 0.9778534770011902, 1.05477774143219, 1.1317020654678345, 1.2086262702941895, 1.285550594329834, 1.362474799156189, 1.4393991231918335, 1.516323447227478, 1.593247652053833, 1.6701719760894775, 1.7470961809158325, 1.824020504951477, 1.900944709777832, 1.9778690338134766, 2.054793357849121, 2.1317176818847656, 2.208641767501831, 2.2855660915374756, 2.36249041557312, 2.4394147396087646, 2.51633882522583, 2.5932631492614746, 2.670187473297119]}, "Gradients/up4.conv.double_conv.3.weight": {"_type": "histogram", "values": [2, 1, 2, 0, 3, 0, 3, 1, 1, 2, 0, 3, 4, 1, 3, 4, 15, 6, 8, 7, 15, 18, 22, 21, 28, 15, 43, 61, 61, 45, 79, 106, 215, 252, 359, 569, 1090, 3456, 27016, 1342, 578, 311, 206, 185, 130, 100, 73, 84, 50, 48, 36, 39, 28, 23, 30, 18, 20, 9, 2, 1, 2, 1, 0, 11], "bins": [-0.004560480359941721, -0.004441017284989357, -0.00432155467569828, -0.004202091600745916, -0.004082628525793552, -0.003963165916502476, -0.0038437028415501118, -0.0037242399994283915, -0.003604777157306671, -0.003485314315184951, -0.0033658514730632305, -0.0032463883981108665, -0.0031269255559891462, -0.003007462713867426, -0.002887999638915062, -0.0027685367967933416, -0.0026490739546716213, -0.002529611112549901, -0.0024101482704281807, -0.0022906851954758167, -0.0021712223533540964, -0.002051759511232376, -0.001932296552695334, -0.0018128335941582918, -0.0016933707520365715, -0.0015739079099148512, -0.001454444951377809, -0.001334981992840767, -0.0012155191507190466, -0.0010960563085973263, -0.0009765933500602841, -0.0008571304497309029, -0.0007376675494015217, -0.0006182046490721405, -0.0004987417487427592, -0.000379278848413378, -0.00025981594808399677, -0.00014035304775461555, -2.0890147425234318e-05, 9.857275290414691e-05, 0.00021803565323352814, 0.00033749855356290936, 0.0004569614538922906, 0.0005764243542216718, 0.000695887254551053, 0.0008153501548804343, 0.0009348130552098155, 0.0010542760137468576, 0.001173738855868578, 0.0012932016979902983, 0.0014126646565273404, 0.0015321276150643826, 0.0016515904571861029, 0.0017710532993078232, 0.0018905162578448653, 0.0020099792163819075, 0.0021294420585036278, 0.002248904900625348, 0.0023683677427470684, 0.0024878308176994324, 0.0026072936598211527, 0.002726756501942873, 0.002846219576895237, 0.0029656824190169573, 0.0030851452611386776]}, "Weights/up4.conv.double_conv.4.weight": {"_type": "histogram", "values": [2, 0, 0, 0, 0, 1, 0, 0, 0, 0, 0, 1, 0, 0, 0, 0, 0, 1, 1, 1, 1, 2, 0, 0, 2, 4, 0, 2, 1, 1, 3, 2, 2, 0, 0, 1, 0, 2, 0, 0, 4, 1, 3, 3, 1, 1, 2, 1, 5, 1, 3, 0, 3, 1, 4, 0, 0, 0, 0, 0, 0, 0, 0, 1], "bins": [-1.2068873643875122, -1.167876124382019, -1.1288650035858154, -1.0898537635803223, -1.050842523574829, -1.0118314027786255, -0.9728201627731323, -0.9338089823722839, -0.8947978019714355, -0.8557866215705872, -0.8167754411697388, -0.7777642011642456, -0.7387530207633972, -0.6997418403625488, -0.6607306003570557, -0.6217194199562073, -0.5827082395553589, -0.5436970591545105, -0.5046858787536621, -0.46567463874816895, -0.42666345834732056, -0.38765227794647217, -0.3486410677433014, -0.3096298575401306, -0.2706186771392822, -0.23160748183727264, -0.19259628653526306, -0.15358509123325348, -0.1145738959312439, -0.07556270062923431, -0.03655150532722473, 0.002459689974784851, 0.041470885276794434, 0.08048208057880402, 0.1194932758808136, 0.15850447118282318, 0.19751566648483276, 0.23652686178684235, 0.27553805708885193, 0.3145492672920227, 0.3535604476928711, 0.3925716280937195, 0.43158283829689026, 0.47059404850006104, 0.5096052289009094, 0.5486164093017578, 0.587627649307251, 0.6266388297080994, 0.6656500101089478, 0.7046611905097961, 0.7436723709106445, 0.7826836109161377, 0.8216947913169861, 0.8607059717178345, 0.8997172117233276, 0.938728392124176, 0.9777395725250244, 1.0167508125305176, 1.0557619333267212, 1.0947731733322144, 1.133784294128418, 1.1727955341339111, 1.2118067741394043, 1.250817894935608, 1.289829134941101]}, "Gradients/up4.conv.double_conv.4.weight": {"_type": "histogram", "values": [1, 0, 0, 0, 0, 0, 1, 0, 0, 0, 0, 0, 0, 0, 0, 0, 0, 0, 0, 0, 0, 0, 0, 0, 0, 0, 0, 0, 0, 0, 0, 0, 0, 0, 0, 1, 1, 1, 0, 1, 1, 1, 0, 1, 0, 0, 3, 0, 3, 36, 5, 2, 2, 0, 0, 0, 0, 2, 0, 0, 0, 1, 0, 1], "bins": [-0.3333125710487366, -0.3265988230705261, -0.31988510489463806, -0.3131713569164276, -0.30645760893821716, -0.2997438609600067, -0.29303014278411865, -0.2863163948059082, -0.27960264682769775, -0.2728888988494873, -0.26617518067359924, -0.2594614326953888, -0.25274768471717834, -0.2460339516401291, -0.23932021856307983, -0.23260647058486938, -0.22589273750782013, -0.21917898952960968, -0.21246525645256042, -0.20575150847434998, -0.19903777539730072, -0.19232402741909027, -0.18561029434204102, -0.17889656126499176, -0.1721828132867813, -0.16546908020973206, -0.1587553322315216, -0.15204159915447235, -0.1453278511762619, -0.13861411809921265, -0.1319003701210022, -0.12518663704395294, -0.11847289651632309, -0.11175915598869324, -0.10504541546106339, -0.09833167493343353, -0.09161793440580368, -0.08490419387817383, -0.07819046080112457, -0.07147672027349472, -0.06476297974586487, -0.058049239218235016, -0.051335498690605164, -0.04462175816297531, -0.03790801763534546, -0.031194278970360756, -0.024480538442730904, -0.0177667997777462, -0.011053059250116348, -0.004339319653809071, 0.0023744204081594944, 0.00908816047012806, 0.015801899135112762, 0.022515639662742615, 0.029229380190372467, 0.03594312071800232, 0.04265686124563217, 0.049370598047971725, 0.05608433857560158, 0.06279807537794113, 0.06951181590557098, 0.07622555643320084, 0.08293929696083069, 0.08965303748846054, 0.0963667780160904]}, "Weights/up4.conv.double_conv.4.bias": {"_type": "histogram", "values": [2, 0, 0, 0, 0, 0, 0, 0, 0, 0, 2, 1, 1, 0, 0, 0, 1, 2, 2, 0, 0, 1, 0, 1, 2, 1, 1, 0, 1, 2, 0, 1, 0, 0, 1, 2, 4, 2, 3, 3, 1, 1, 3, 0, 2, 2, 0, 2, 1, 2, 2, 3, 2, 1, 1, 0, 1, 1, 0, 2, 0, 0, 0, 1], "bins": [-2.1734156608581543, -2.1285552978515625, -2.0836949348449707, -2.038834571838379, -1.9939743280410767, -1.9491139650344849, -1.904253602027893, -1.8593932390213013, -1.8145328760147095, -1.7696725130081177, -1.7248121500015259, -1.6799519062042236, -1.6350915431976318, -1.59023118019104, -1.5453708171844482, -1.5005104541778564, -1.4556500911712646, -1.4107898473739624, -1.3659294843673706, -1.3210691213607788, -1.276208758354187, -1.2313483953475952, -1.1864880323410034, -1.1416276693344116, -1.0967674255371094, -1.0519070625305176, -1.0070466995239258, -0.962186336517334, -0.9173259735107422, -0.8724656701087952, -0.8276053071022034, -0.7827449440956116, -0.7378846406936646, -0.6930242776870728, -0.648163914680481, -0.6033035516738892, -0.5584432482719421, -0.5135828852653503, -0.46872255206108093, -0.42386218905448914, -0.3790018558502197, -0.33414149284362793, -0.2892811596393585, -0.24442081153392792, -0.19956046342849731, -0.1547001153230667, -0.1098397746682167, -0.0649794340133667, -0.020119085907936096, 0.02474125847220421, 0.06960160285234451, 0.11446195095777512, 0.15932229161262512, 0.20418263971805573, 0.24904298782348633, 0.29390332102775574, 0.33876368403434753, 0.38362401723861694, 0.42848438024520874, 0.47334471344947815, 0.5182050466537476, 0.5630654096603394, 0.6079257726669312, 0.6527860760688782, 0.69764643907547]}, "Gradients/up4.conv.double_conv.4.bias": {"_type": "histogram", "values": [1, 0, 0, 0, 0, 0, 0, 1, 0, 0, 0, 0, 0, 0, 0, 0, 0, 0, 0, 0, 0, 0, 0, 0, 0, 0, 0, 2, 1, 0, 0, 1, 0, 1, 1, 0, 1, 0, 1, 0, 0, 1, 2, 4, 33, 2, 2, 1, 1, 2, 0, 0, 1, 1, 1, 0, 0, 1, 0, 0, 0, 0, 0, 2], "bins": [-0.20018142461776733, -0.1957029104232788, -0.19122439622879028, -0.18674588203430176, -0.18226736783981323, -0.1777888536453247, -0.17331033945083618, -0.16883182525634766, -0.16435331106185913, -0.1598747968673706, -0.15539628267288208, -0.15091778337955475, -0.14643926918506622, -0.1419607549905777, -0.13748224079608917, -0.13300372660160065, -0.12852521240711212, -0.1240466982126236, -0.11956818401813507, -0.11508966982364655, -0.11061115562915802, -0.1061326414346695, -0.10165412724018097, -0.09717561304569244, -0.09269709885120392, -0.0882185846567154, -0.08374007046222687, -0.07926156371831894, -0.07478304952383041, -0.07030453532934189, -0.06582602113485336, -0.06134750694036484, -0.05686899274587631, -0.05239047855138779, -0.04791196435689926, -0.043433453887701035, -0.03895493969321251, -0.034476425498723984, -0.02999791130423546, -0.025519398972392082, -0.021040884777903557, -0.01656237058341503, -0.012083858251571655, -0.00760534405708313, -0.003126830793917179, 0.0013516827020794153, 0.00583019619807601, 0.010308709926903248, 0.014787223190069199, 0.019265737384557724, 0.0237442497164011, 0.028222763910889626, 0.032701276242733, 0.03717979043722153, 0.04165830463171005, 0.04613681882619858, 0.0506153330206871, 0.05509384348988533, 0.059572357684373856, 0.06405086815357208, 0.06852938234806061, 0.07300789654254913, 0.07748641073703766, 0.08196492493152618, 0.08644343912601471]}, "Weights/outc.conv.weight": {"_type": "histogram", "values": [1, 0, 0, 0, 0, 0, 0, 0, 0, 0, 2, 0, 2, 3, 0, 1, 0, 1, 2, 6, 2, 2, 7, 3, 6, 7, 2, 9, 7, 10, 7, 11, 19, 18, 15, 25, 18, 22, 22, 20, 27, 19, 35, 46, 49, 42, 42, 37, 40, 19, 22, 19, 12, 13, 12, 2, 4, 4, 3, 1, 0, 2, 3, 1], "bins": [-3.487842559814453, -3.4136831760406494, -3.339524030685425, -3.265364646911621, -3.1912055015563965, -3.1170461177825928, -3.042886734008789, -2.9687275886535645, -2.8945682048797607, -2.820408821105957, -2.7462496757507324, -2.6720902919769287, -2.597930908203125, -2.5237717628479004, -2.4496123790740967, -2.375453233718872, -2.3012938499450684, -2.2271344661712646, -2.15297532081604, -2.0788159370422363, -2.0046567916870117, -1.930497407913208, -1.8563380241394043, -1.7821787595748901, -1.708019495010376, -1.6338602304458618, -1.5597009658813477, -1.485541582107544, -1.4113823175430298, -1.3372230529785156, -1.263063669204712, -1.1889044046401978, -1.1147451400756836, -1.0405858755111694, -0.9664265513420105, -0.8922672271728516, -0.8181079626083374, -0.7439486980438232, -0.6697893738746643, -0.5956300497055054, -0.5214707851409912, -0.44731149077415466, -0.3731521964073181, -0.29899290204048157, -0.22483360767364502, -0.15067431330680847, -0.07651501893997192, -0.002355724573135376, 0.07180356979370117, 0.14596286416053772, 0.22012215852737427, 0.2942814528942108, 0.36844074726104736, 0.4426000416278839, 0.5167593359947205, 0.5909186601638794, 0.6650779247283936, 0.7392371892929077, 0.8133965134620667, 0.8875558376312256, 0.9617151021957397, 1.035874366760254, 1.1100337505340576, 1.1841930150985718, 1.258352279663086]}, "Gradients/outc.conv.weight": {"_type": "histogram", "values": [1, 1, 0, 0, 0, 1, 1, 1, 0, 0, 0, 0, 1, 0, 0, 0, 0, 2, 0, 1, 0, 1, 1, 1, 3, 1, 2, 10, 9, 18, 533, 71, 13, 10, 5, 5, 4, 1, 0, 1, 0, 1, 0, 0, 0, 0, 0, 0, 0, 1, 0, 0, 0, 1, 1, 0, 0, 0, 1, 0, 0, 0, 0, 1], "bins": [-0.16743512451648712, -0.16197817027568817, -0.15652123093605042, -0.15106427669525146, -0.1456073373556137, -0.14015038311481476, -0.134693443775177, -0.12923648953437805, -0.1237795427441597, -0.11832259595394135, -0.1128656417131424, -0.10740869492292404, -0.10195174813270569, -0.09649480134248734, -0.09103785455226898, -0.08558090776205063, -0.08012396097183228, -0.07466700673103333, -0.06921005994081497, -0.06375311315059662, -0.058296166360378265, -0.052839215844869614, -0.04738226905465126, -0.04192532226443291, -0.036468371748924255, -0.031011424958705902, -0.02555447816848755, -0.020097529515624046, -0.014640581794083118, -0.00918363407254219, -0.0037266858853399754, 0.0017302620690315962, 0.007187210023403168, 0.012644157744944096, 0.018101105466485023, 0.023558054119348526, 0.02901500090956688, 0.03447195142507553, 0.039928898215293884, 0.04538584500551224, 0.05084279179573059, 0.05629974231123924, 0.061756689101457596, 0.06721363961696625, 0.0726705864071846, 0.07812753319740295, 0.08358447998762131, 0.08904142677783966, 0.09449838101863861, 0.09995532780885696, 0.10541227459907532, 0.11086922138929367, 0.11632616817951202, 0.12178311496973038, 0.12724006175994873, 0.13269701600074768, 0.13815395534038544, 0.1436109095811844, 0.14906786382198334, 0.1545248031616211, 0.15998175740242004, 0.1654386967420578, 0.17089565098285675, 0.1763525903224945, 0.18180954456329346]}, "Weights/outc.conv.bias": {"_type": "histogram", "values": [1, 0, 0, 0, 0, 0, 0, 0, 0, 0, 0, 0, 0, 0, 0, 0, 0, 0, 0, 0, 0, 0, 0, 0, 0, 0, 0, 0, 0, 0, 0, 0, 0, 0, 0, 0, 0, 0, 0, 0, 0, 0, 0, 0, 0, 0, 0, 1, 1, 2, 0, 2, 0, 0, 1, 0, 2, 0, 0, 0, 0, 0, 0, 1], "bins": [-3.725489616394043, -3.6611764430999756, -3.596863269805908, -3.53255033493042, -3.4682371616363525, -3.403923988342285, -3.3396108150482178, -3.2752976417541504, -3.210984468460083, -3.1466715335845947, -3.0823583602905273, -3.01804518699646, -2.9537320137023926, -2.889418840408325, -2.825105905532837, -2.7607927322387695, -2.696479558944702, -2.6321663856506348, -2.5678532123565674, -2.5035400390625, -2.4392271041870117, -2.3749139308929443, -2.310600757598877, -2.2462875843048096, -2.181974411010742, -2.117661476135254, -2.0533483028411865, -1.9890351295471191, -1.9247219562530518, -1.860408902168274, -1.7960957288742065, -1.7317825555801392, -1.6674695014953613, -1.603156328201294, -1.5388431549072266, -1.4745301008224487, -1.4102169275283813, -1.345903754234314, -1.2815907001495361, -1.2172775268554688, -1.152964472770691, -1.0886512994766235, -1.0243381261825562, -0.9600250124931335, -0.8957118988037109, -0.8313987851142883, -0.767085611820221, -0.7027724981307983, -0.6384593844413757, -0.5741462707519531, -0.5098330974578857, -0.44551998376846313, -0.3812068700790405, -0.31689372658729553, -0.25258058309555054, -0.18826746940612793, -0.12395434081554413, -0.05964120849967003, 0.004671922884881496, 0.06898505240678787, 0.13329818844795227, 0.19761131703853607, 0.2619244456291199, 0.3262375593185425, 0.3905507028102875]}, "Gradients/outc.conv.bias": {"_type": "histogram", "values": [1, 0, 0, 0, 0, 0, 0, 0, 0, 0, 0, 0, 0, 0, 0, 0, 0, 0, 0, 0, 0, 0, 0, 0, 0, 1, 0, 0, 0, 0, 0, 0, 1, 0, 1, 2, 1, 1, 1, 1, 0, 0, 0, 0, 0, 0, 0, 0, 0, 0, 0, 0, 0, 0, 0, 0, 0, 0, 0, 0, 0, 0, 0, 1], "bins": [-0.12984639406204224, -0.12607760727405548, -0.12230882793664932, -0.11854004859924316, -0.114771269261837, -0.11100248992443085, -0.10723370313644409, -0.10346492379903793, -0.09969614446163177, -0.09592735767364502, -0.09215857833623886, -0.0883897989988327, -0.08462101966142654, -0.08085223287343979, -0.07708345353603363, -0.07331467419862747, -0.06954589486122131, -0.06577710807323456, -0.0620083287358284, -0.05823954567313194, -0.054470766335725784, -0.05070198327302933, -0.04693320393562317, -0.04316442087292671, -0.039395637810230255, -0.0356268584728241, -0.03185807541012764, -0.02808929607272148, -0.024320513010025024, -0.020551731809973717, -0.01678295060992241, -0.013014169409871101, -0.009245388209819794, -0.005476607009768486, -0.001707825344055891, 0.0020609560888260603, 0.005829737521708012, 0.00959851872175932, 0.013367300853133202, 0.01713608205318451, 0.020904863253235817, 0.024673644453287125, 0.028442425653338432, 0.03221120685338974, 0.0359799899160862, 0.039748769253492355, 0.04351755231618881, 0.04728633165359497, 0.05105511471629143, 0.054823897778987885, 0.05859267711639404, 0.0623614601790905, 0.06613024324178696, 0.06989902257919312, 0.07366780191659927, 0.07743658125400543, 0.08120536804199219, 0.08497414737939835, 0.0887429267168045, 0.09251171350479126, 0.09628049284219742, 0.10004927217960358, 0.10381805151700974, 0.10758683830499649, 0.11135561764240265]}, "_timestamp": 1744840711.959787, "_runtime": 3089.461951971054, "_step": 9724}', '{"train loss": 0.7995696663856506, "step": 9701, "epoch": 5, "_timestamp": 1744840712.0185652, "_runtime": 3089.5207302570343, "_step": 9725}', '{"train loss": 0.34971383213996887, "step": 9702, "epoch": 5, "_timestamp": 1744840712.0675616, "_runtime": 3089.569726705551, "_step": 9726}', '{"train loss": 1.8601690530776978, "step": 9703, "epoch": 5, "_timestamp": 1744840712.1170819, "_runtime": 3089.6192469596863, "_step": 9727}', '{"train loss": 0.38546448945999146, "step": 9704, "epoch": 5, "_timestamp": 1744840712.165335, "_runtime": 3089.6675000190735, "_step": 9728}', '{"train loss": 1.0749595165252686, "step": 9705, "epoch": 5, "_timestamp": 1744840712.2148602, "_runtime": 3089.717025279999, "_step": 9729}', '{"train loss": 0.8951237201690674, "step": 9706, "epoch": 5, "_timestamp": 1744840712.2643778, "_runtime": 3089.7665429115295, "_step": 9730}', '{"train loss": 1.859344482421875, "step": 9707, "epoch": 5, "_timestamp": 1744840712.3138587, "_runtime": 3089.816023826599, "_step": 9731}', '{"train loss": 1.3126060962677002, "step": 9708, "epoch": 5, "_timestamp": 1744840712.36281, "_runtime": 3089.864974975586, "_step": 9732}', '{"train loss": 0.9912751317024231, "step": 9709, "epoch": 5, "_timestamp": 1744840712.4129546, "_runtime": 3089.9151196479797, "_step": 9733}', '{"train loss": 3.8505115509033203, "step": 9710, "epoch": 5, "_timestamp": 1744840712.4610043, "_runtime": 3089.963169336319, "_step": 9734}', '{"train loss": 2.4535984992980957, "step": 9711, "epoch": 5, "_timestamp": 1744840712.5102754, "_runtime": 3090.012440443039, "_step": 9735}', '{"train loss": 2.427395820617676, "step": 9712, "epoch": 5, "_timestamp": 1744840712.5609045, "_runtime": 3090.0630695819855, "_step": 9736}', '{"train loss": 0.4308224618434906, "step": 9713, "epoch": 5, "_timestamp": 1744840712.6096778, "_runtime": 3090.1118428707123, "_step": 9737}', '{"train loss": 0.6068425178527832, "step": 9714, "epoch": 5, "_timestamp": 1744840712.6595147, "_runtime": 3090.1616797447205, "_step": 9738}', '{"train loss": 1.577215313911438, "step": 9715, "epoch": 5, "_timestamp": 1744840712.7076426, "_runtime": 3090.2098076343536, "_step": 9739}']}, 'wandb-events.jsonl': {'offset': 101, 'content': ['{"system.gpu.0.memoryAllocated": 20.94, "system.gpu.process.0.memoryAllocated": 20.94, "system.gpu.0.memory": 31.47, "system.gpu.process.0.memory": 31.47, "system.gpu.0.gpu": 53.2, "system.gpu.process.0.gpu": 53.2, "system.gpu.0.temp": 60.2, "system.gpu.process.0.temp": 60.2, "system.gpu.0.powerWatts": 59.47, "system.gpu.process.0.powerWatts": 59.47, "system.gpu.0.powerPercent": 45.74, "system.gpu.process.0.powerPercent": 45.74, "system.proc.memory.availableMB": 27487.69, "system.memory": 57.56, "system.proc.memory.rssMB": 386.46, "system.proc.memory.percent": 0.6, "system.network.sent": 64955551.75, "system.network.recv": 18352408.25, "system.disk": 66.4, "system.cpu": 7.65, "system.cpu.0.cpu_percent": 64.0, "system.cpu.1.cpu_percent": 68.9, "system.cpu.2.cpu_percent": 75.5, "system.cpu.3.cpu_percent": 76.8, "system.cpu.4.cpu_percent": 70.8, "system.cpu.5.cpu_percent": 69.9, "system.cpu.6.cpu_percent": 71.3, "system.cpu.7.cpu_percent": 79.6, "system.cpu.8.cpu_percent": 68.8, "system.cpu.9.cpu_percent": 69.1, "system.cpu.10.cpu_percent": 85.3, "system.cpu.11.cpu_percent": 81.0, "system.cpu.12.cpu_percent": 73.5, "system.cpu.13.cpu_percent": 77.9, "system.cpu.14.cpu_percent": 94.8, "system.cpu.15.cpu_percent": 87.5, "system.proc.cpu.threads": 50, "_wandb": true, "_timestamp": 1744840713.747477, "_runtime": 3091.249642}']}, 'output.log': {'offset': 50, 'content': ['ERROR 2025-04-16T21:58:35.705663 Epoch 5/5: 100%|| 1943/1943 [10:09<00:00,  3.19img/s, loss (batch)=1.58]\n', 'ERROR 2025-04-16T21:58:35.705663 INFO: Checkpoint 5 saved!\n']}}, 'dropped': 0}})
wandb: / 2.875 MB of 2.875 MB uploaded (0.000 MB deduped)
wandb: Run history:
wandb:           epoch 
wandb:   learning rate 
wandb:            step 
wandb:      train loss 
wandb: validation Dice 
wandb:
wandb: Run summary:
wandb:           epoch 5
wandb:   learning rate 0.0
wandb:            step 9715
wandb:      train loss 1.57722
wandb: validation Dice 0.4829
wandb:
wandb: Synced winter-leaf-281: https://wandb.ai/anony-moose-525312484519768883/U-Net/runs/8rmczwim?apiKey=41e01e48b2a4d6ae9361934e4b58e0fd29ed7ec0
wandb: Synced 5 W&B file(s), 75 media file(s), 0 artifact file(s) and 0 other file(s)
wandb: Find logs at: .\wandb\run-20250416_230702-8rmczwim\logs
PS C:\Users\Admin\anaconda3\envs\UNet-Kathe-Training\UNet-Kathe>          